<?xml version="1.0"?>
<opencv_storage>
<cascade>
  <stageType>BOOST</stageType>
  <featureType>HAAR</featureType>
  <height>24</height>
  <width>24</width>
  <stageParams>
    <boostType>GAB</boostType>
    <minHitRate>9.9500000476837158e-01</minHitRate>
    <maxFalseAlarm>5.0000000000000000e-01</maxFalseAlarm>
    <weightTrimRate>9.4999999999999996e-01</weightTrimRate>
    <maxDepth>1</maxDepth>
    <maxWeakCount>100</maxWeakCount></stageParams>
  <featureParams>
    <maxCatCount>0</maxCatCount>
    <featSize>1</featSize>
    <mode>BASIC</mode></featureParams>
  <stageNum>14</stageNum>
  <stages>
    <!-- stage 0 -->
    <_>
      <maxWeakCount>4</maxWeakCount>
      <stageThreshold>-2.4303178787231445e+00</stageThreshold>
      <weakClassifiers>
        <_>
          <internalNodes>
            0 -1 56 -2.3929186165332794e-02</internalNodes>
          <leafValues>
            4.7185260057449341e-01 -9.4261425733566284e-01</leafValues></_>
        <_>
          <internalNodes>
            0 -1 15 -3.0474744737148285e-02</internalNodes>
          <leafValues>
            4.7279956936836243e-01 -9.1125774383544922e-01</leafValues></_>
        <_>
          <internalNodes>
            0 -1 38 -2.7478184551000595e-02</internalNodes>
          <leafValues>
            3.6795464158058167e-01 -8.8169682025909424e-01</leafValues></_>
        <_>
          <internalNodes>
            0 -1 58 -1.6340263187885284e-02</internalNodes>
          <leafValues>
            3.0525082349777222e-01 -9.5177870988845825e-01</leafValues></_></weakClassifiers></_>
    <!-- stage 1 -->
    <_>
      <maxWeakCount>4</maxWeakCount>
      <stageThreshold>-1.4006621837615967e+00</stageThreshold>
      <weakClassifiers>
        <_>
          <internalNodes>
            0 -1 21 -9.2850595712661743e-02</internalNodes>
          <leafValues>
            4.3523314595222473e-01 -8.3751648664474487e-01</leafValues></_>
        <_>
          <internalNodes>
            0 -1 28 6.7661125212907791e-03</internalNodes>
          <leafValues>
            -9.6824282407760620e-01 2.5205951929092407e-01</leafValues></_>
        <_>
          <internalNodes>
            0 -1 59 1.4759320765733719e-02</internalNodes>
          <leafValues>
            -1. 2.1681039035320282e-01</leafValues></_>
        <_>
          <internalNodes>
            0 -1 36 -2.5156582705676556e-03</internalNodes>
          <leafValues>
            1.8828673660755157e-01 -9.6171027421951294e-01</leafValues></_></weakClassifiers></_>
    <!-- stage 2 -->
    <_>
      <maxWeakCount>5</maxWeakCount>
      <stageThreshold>-1.5515030622482300e+00</stageThreshold>
      <weakClassifiers>
        <_>
          <internalNodes>
            0 -1 66 -2.6149537414312363e-02</internalNodes>
          <leafValues>
            3.9657855033874512e-01 -7.7763700485229492e-01</leafValues></_>
        <_>
          <internalNodes>
            0 -1 31 -7.6446298044174910e-04</internalNodes>
          <leafValues>
            1.5074938535690308e-01 -8.9807105064392090e-01</leafValues></_>
        <_>
          <internalNodes>
            0 -1 56 -2.1508090198040009e-02</internalNodes>
          <leafValues>
            2.5241184234619141e-01 -7.8909605741500854e-01</leafValues></_>
        <_>
          <internalNodes>
            0 -1 38 -2.8229417279362679e-02</internalNodes>
          <leafValues>
            2.7573159337043762e-01 -8.4161919355392456e-01</leafValues></_>
        <_>
          <internalNodes>
            0 -1 6 -1.1069329082965851e-01</internalNodes>
          <leafValues>
            8.1272751092910767e-01 -3.3540812134742737e-01</leafValues></_></weakClassifiers></_>
    <!-- stage 3 -->
    <_>
      <maxWeakCount>5</maxWeakCount>
      <stageThreshold>-1.1540843248367310e+00</stageThreshold>
      <weakClassifiers>
        <_>
          <internalNodes>
            0 -1 67 -4.5747958123683929e-02</internalNodes>
          <leafValues>
            3.7521222233772278e-01 -7.5397074222564697e-01</leafValues></_>
        <_>
          <internalNodes>
            0 -1 75 2.0050340026500635e-05</internalNodes>
          <leafValues>
            -9.0900033712387085e-01 1.3635754585266113e-01</leafValues></_>
        <_>
          <internalNodes>
            0 -1 12 -2.4766556918621063e-02</internalNodes>
          <leafValues>
            1.9698223471641541e-01 -9.0940684080123901e-01</leafValues></_>
        <_>
          <internalNodes>
            0 -1 64 3.6026386078447104e-04</internalNodes>
          <leafValues>
            2.1889854967594147e-01 -9.1784358024597168e-01</leafValues></_>
        <_>
          <internalNodes>
            0 -1 68 3.2202032161876559e-04</internalNodes>
          <leafValues>
            -9.1415476799011230e-01 1.8439020216464996e-01</leafValues></_></weakClassifiers></_>
    <!-- stage 4 -->
    <_>
      <maxWeakCount>6</maxWeakCount>
      <stageThreshold>-1.6257141828536987e+00</stageThreshold>
      <weakClassifiers>
        <_>
          <internalNodes>
            0 -1 54 4.7652963548898697e-03</internalNodes>
          <leafValues>
            -7.8045517206192017e-01 1.6256158053874969e-01</leafValues></_>
        <_>
          <internalNodes>
            0 -1 42 -5.7918566744774580e-04</internalNodes>
          <leafValues>
            1.7219720780849457e-01 -8.4879076480865479e-01</leafValues></_>
        <_>
          <internalNodes>
            0 -1 44 -8.7252480443567038e-04</internalNodes>
          <leafValues>
            1.8714821338653564e-01 -9.1151148080825806e-01</leafValues></_>
        <_>
          <internalNodes>
            0 -1 70 1.9525652751326561e-03</internalNodes>
          <leafValues>
            -9.1173648834228516e-01 2.2028203308582306e-01</leafValues></_>
        <_>
          <internalNodes>
            0 -1 0 3.1007374636828899e-03</internalNodes>
          <leafValues>
            -4.0965580940246582e-01 5.3152936697006226e-01</leafValues></_>
        <_>
          <internalNodes>
            0 -1 18 -3.6362577229738235e-03</internalNodes>
          <leafValues>
            2.7426233887672424e-01 -8.5389107465744019e-01</leafValues></_></weakClassifiers></_>
    <!-- stage 5 -->
    <_>
      <maxWeakCount>5</maxWeakCount>
      <stageThreshold>-1.1770504713058472e+00</stageThreshold>
      <weakClassifiers>
        <_>
          <internalNodes>
            0 -1 57 1.2447211891412735e-02</internalNodes>
          <leafValues>
            -7.3611110448837280e-01 2.0886075496673584e-01</leafValues></_>
        <_>
          <internalNodes>
            0 -1 27 -1.0449983179569244e-01</internalNodes>
          <leafValues>
            2.2804938256740570e-01 -7.4991595745086670e-01</leafValues></_>
        <_>
          <internalNodes>
            0 -1 30 -4.8726396635174751e-03</internalNodes>
          <leafValues>
            1.7233450710773468e-01 -8.6961352825164795e-01</leafValues></_>
        <_>
          <internalNodes>
            0 -1 69 4.4175176299177110e-04</internalNodes>
          <leafValues>
            1.8327851593494415e-01 -9.0899252891540527e-01</leafValues></_>
        <_>
          <internalNodes>
            0 -1 76 -5.1593035459518433e-04</internalNodes>
          <leafValues>
            -9.1719073057174683e-01 1.6464535892009735e-01</leafValues></_></weakClassifiers></_>
    <!-- stage 6 -->
    <_>
      <maxWeakCount>7</maxWeakCount>
      <stageThreshold>-1.2881166934967041e+00</stageThreshold>
      <weakClassifiers>
        <_>
          <internalNodes>
            0 -1 54 7.2724288329482079e-03</internalNodes>
          <leafValues>
            -7.3442935943603516e-01 1.9309261441230774e-01</leafValues></_>
        <_>
          <internalNodes>
            0 -1 3 1.1628340929746628e-02</internalNodes>
          <leafValues>
            -3.6548590660095215e-01 6.5011900663375854e-01</leafValues></_>
        <_>
          <internalNodes>
            0 -1 40 2.1878583356738091e-03</internalNodes>
          <leafValues>
            -6.3750374317169189e-01 3.1905162334442139e-01</leafValues></_>
        <_>
          <internalNodes>
            0 -1 19 1.0189947485923767e-01</internalNodes>
          <leafValues>
            2.0479503273963928e-01 -8.7054848670959473e-01</leafValues></_>
        <_>
          <internalNodes>
            0 -1 61 1.6339612193405628e-03</internalNodes>
          <leafValues>
            -9.4308227300643921e-01 1.7318466305732727e-01</leafValues></_>
        <_>
          <internalNodes>
            0 -1 23 -3.9298385381698608e-02</internalNodes>
          <leafValues>
            -9.2812204360961914e-01 1.5904261171817780e-01</leafValues></_>
        <_>
          <internalNodes>
            0 -1 41 2.5775875896215439e-02</internalNodes>
          <leafValues>
            1.9071088731288910e-01 -9.0085470676422119e-01</leafValues></_></weakClassifiers></_>
    <!-- stage 7 -->
    <_>
      <maxWeakCount>5</maxWeakCount>
      <stageThreshold>-1.2331545352935791e+00</stageThreshold>
      <weakClassifiers>
        <_>
          <internalNodes>
            0 -1 53 -2.4885449092835188e-03</internalNodes>
          <leafValues>
            -1.5521064400672913e-02 -7.5431329011917114e-01</leafValues></_>
        <_>
          <internalNodes>
            0 -1 76 3.2200821442529559e-04</internalNodes>
          <leafValues>
            5.0813481211662292e-02 -9.2924177646636963e-01</leafValues></_>
        <_>
          <internalNodes>
            0 -1 39 -2.5471206754446030e-03</internalNodes>
          <leafValues>
            1.6462960839271545e-01 -7.9110819101333618e-01</leafValues></_>
        <_>
          <internalNodes>
            0 -1 77 -1.7838570056483150e-03</internalNodes>
          <leafValues>
            -9.8577725887298584e-01 1.5059128403663635e-01</leafValues></_>
        <_>
          <internalNodes>
            0 -1 65 4.1668023914098740e-03</internalNodes>
          <leafValues>
            1.3517966866493225e-01 -1.</leafValues></_></weakClassifiers></_>
    <!-- stage 8 -->
    <_>
      <maxWeakCount>7</maxWeakCount>
      <stageThreshold>-1.4689893722534180e+00</stageThreshold>
      <weakClassifiers>
        <_>
          <internalNodes>
            0 -1 25 -1.5795316547155380e-02</internalNodes>
          <leafValues>
            3.4020617604255676e-01 -6.8347012996673584e-01</leafValues></_>
        <_>
          <internalNodes>
            0 -1 51 -4.5605632476508617e-04</internalNodes>
          <leafValues>
            2.1667820215225220e-01 -6.4907777309417725e-01</leafValues></_>
        <_>
          <internalNodes>
            0 -1 79 -3.6809386074310169e-05</internalNodes>
          <leafValues>
            2.4031645059585571e-01 -6.4952594041824341e-01</leafValues></_>
        <_>
          <internalNodes>
            0 -1 34 -6.9272816181182861e-03</internalNodes>
          <leafValues>
            -9.0077650547027588e-01 2.1668969094753265e-01</leafValues></_>
        <_>
          <internalNodes>
            0 -1 10 -4.9715191125869751e-02</internalNodes>
          <leafValues>
            6.6649335622787476e-01 -3.0881801247596741e-01</leafValues></_>
        <_>
          <internalNodes>
            0 -1 17 -7.5886351987719536e-03</internalNodes>
          <leafValues>
            4.8358681797981262e-01 -4.4922062754631042e-01</leafValues></_>
        <_>
          <internalNodes>
            0 -1 13 -8.7668925523757935e-02</internalNodes>
          <leafValues>
            -9.6216613054275513e-01 1.8867750465869904e-01</leafValues></_></weakClassifiers></_>
    <!-- stage 9 -->
    <_>
      <maxWeakCount>7</maxWeakCount>
      <stageThreshold>-1.3609248399734497e+00</stageThreshold>
      <weakClassifiers>
        <_>
          <internalNodes>
            0 -1 5 2.7686465531587601e-02</internalNodes>
          <leafValues>
            -7.1581262350082397e-01 1.2439418584108353e-01</leafValues></_>
        <_>
          <internalNodes>
            0 -1 9 -1.6808114945888519e-02</internalNodes>
          <leafValues>
            4.5754164457321167e-01 -4.6223855018615723e-01</leafValues></_>
        <_>
          <internalNodes>
            0 -1 78 1.6917071770876646e-03</internalNodes>
          <leafValues>
            1.7945811152458191e-01 -8.8904005289077759e-01</leafValues></_>
        <_>
          <internalNodes>
            0 -1 33 -1.4922825619578362e-02</internalNodes>
          <leafValues>
            2.3166970908641815e-01 -7.4382001161575317e-01</leafValues></_>
        <_>
          <internalNodes>
            0 -1 46 -3.8820686313556507e-05</internalNodes>
          <leafValues>
            2.2309429943561554e-01 -6.7729622125625610e-01</leafValues></_>
        <_>
          <internalNodes>
            0 -1 74 1.9740452989935875e-04</internalNodes>
          <leafValues>
            -8.5557359457015991e-01 1.6844177246093750e-01</leafValues></_>
        <_>
          <internalNodes>
            0 -1 29 2.6725846691988409e-04</internalNodes>
          <leafValues>
            -9.2535388469696045e-01 1.3213297724723816e-01</leafValues></_></weakClassifiers></_>
    <!-- stage 10 -->
    <_>
      <maxWeakCount>7</maxWeakCount>
      <stageThreshold>-1.3973660469055176e+00</stageThreshold>
      <weakClassifiers>
        <_>
          <internalNodes>
            0 -1 26 1.1652084998786449e-02</internalNodes>
          <leafValues>
            -7.1078276634216309e-01 9.8546043038368225e-02</leafValues></_>
        <_>
          <internalNodes>
            0 -1 62 -3.2372627174481750e-04</internalNodes>
          <leafValues>
            2.8314942121505737e-01 -5.1849347352981567e-01</leafValues></_>
        <_>
          <internalNodes>
            0 -1 80 5.8793956413865089e-03</internalNodes>
          <leafValues>
            1.7441675066947937e-01 -8.7194257974624634e-01</leafValues></_>
        <_>
          <internalNodes>
            0 -1 72 -7.0961355231702328e-03</internalNodes>
          <leafValues>
            -8.3924138545989990e-01 1.9436326622962952e-01</leafValues></_>
        <_>
          <internalNodes>
            0 -1 32 5.0941470544785261e-04</internalNodes>
          <leafValues>
            2.4220570921897888e-01 -6.0614830255508423e-01</leafValues></_>
        <_>
          <internalNodes>
            0 -1 81 2.9054558835923672e-03</internalNodes>
          <leafValues>
            1.7288395762443542e-01 -8.6419171094894409e-01</leafValues></_>
        <_>
          <internalNodes>
            0 -1 11 -1.2934482097625732e-01</internalNodes>
          <leafValues>
            -9.1227144002914429e-01 1.2067034095525742e-01</leafValues></_></weakClassifiers></_>
    <!-- stage 11 -->
    <_>
      <maxWeakCount>9</maxWeakCount>
      <stageThreshold>-1.8209075927734375e+00</stageThreshold>
      <weakClassifiers>
        <_>
          <internalNodes>
            0 -1 52 2.3437363561242819e-03</internalNodes>
          <leafValues>
            -7.2756826877593994e-01 5.2486188709735870e-02</leafValues></_>
        <_>
          <internalNodes>
            0 -1 1 1.3623779639601707e-02</internalNodes>
          <leafValues>
            -3.1808829307556152e-01 5.9231227636337280e-01</leafValues></_>
        <_>
          <internalNodes>
            0 -1 2 -4.6862987801432610e-03</internalNodes>
          <leafValues>
            5.9199470281600952e-01 -2.9812219738960266e-01</leafValues></_>
        <_>
          <internalNodes>
            0 -1 37 -2.9899668879806995e-03</internalNodes>
          <leafValues>
            -9.5066744089126587e-01 1.7543324828147888e-01</leafValues></_>
        <_>
          <internalNodes>
            0 -1 48 -3.4967693500220776e-04</internalNodes>
          <leafValues>
            1.9622163474559784e-01 -7.5687724351882935e-01</leafValues></_>
        <_>
          <internalNodes>
            0 -1 50 -3.7177989725023508e-04</internalNodes>
          <leafValues>
            -9.7646409273147583e-01 8.9907951653003693e-02</leafValues></_>
        <_>
          <internalNodes>
            0 -1 82 -2.0643381867557764e-03</internalNodes>
          <leafValues>
            5.6293314695358276e-01 -2.7313295006752014e-01</leafValues></_>
        <_>
          <internalNodes>
            0 -1 49 -4.2149070650339127e-03</internalNodes>
          <leafValues>
            -9.2923831939697266e-01 1.6550165414810181e-01</leafValues></_>
        <_>
          <internalNodes>
            0 -1 22 -8.3856470882892609e-03</internalNodes>
          <leafValues>
            1.2203853577375412e-01 -9.2536354064941406e-01</leafValues></_></weakClassifiers></_>
    <!-- stage 12 -->
    <_>
      <maxWeakCount>9</maxWeakCount>
      <stageThreshold>-1.4969899654388428e+00</stageThreshold>
      <weakClassifiers>
        <_>
          <internalNodes>
            0 -1 54 3.2483839895576239e-03</internalNodes>
          <leafValues>
            -7.8747028112411499e-01 -1.6744914650917053e-01</leafValues></_>
        <_>
          <internalNodes>
            0 -1 43 -4.6062311157584190e-03</internalNodes>
          <leafValues>
            1.4531321823596954e-01 -5.9973996877670288e-01</leafValues></_>
        <_>
          <internalNodes>
            0 -1 73 -6.1806105077266693e-04</internalNodes>
          <leafValues>
            -8.9657390117645264e-01 1.2477222830057144e-01</leafValues></_>
        <_>
          <internalNodes>
            0 -1 14 1.7838440835475922e-03</internalNodes>
          <leafValues>
            1.6136261820793152e-01 -8.8991576433181763e-01</leafValues></_>
        <_>
          <internalNodes>
            0 -1 16 -2.2474708966910839e-03</internalNodes>
          <leafValues>
            -7.5864899158477783e-01 1.5581367909908295e-01</leafValues></_>
        <_>
          <internalNodes>
            0 -1 20 6.5778484567999840e-03</internalNodes>
          <leafValues>
            -3.1915736198425293e-01 4.9767470359802246e-01</leafValues></_>
        <_>
          <internalNodes>
            0 -1 71 7.0513254031538963e-03</internalNodes>
          <leafValues>
            1.5694032609462738e-01 -9.4361948966979980e-01</leafValues></_>
        <_>
          <internalNodes>
            0 -1 4 -3.2001631334424019e-03</internalNodes>
          <leafValues>
            5.8021754026412964e-01 -2.5866284966468811e-01</leafValues></_>
        <_>
          <internalNodes>
            0 -1 35 5.6844635400921106e-04</internalNodes>
          <leafValues>
            -9.7956615686416626e-01 1.5287929773330688e-01</leafValues></_></weakClassifiers></_>
    <!-- stage 13 -->
    <_>
      <maxWeakCount>9</maxWeakCount>
      <stageThreshold>-1.5063452720642090e+00</stageThreshold>
      <weakClassifiers>
        <_>
          <internalNodes>
            0 -1 60 9.2167109251022339e-03</internalNodes>
          <leafValues>
            -7.5852471590042114e-01 -2.1598272025585175e-02</leafValues></_>
        <_>
          <internalNodes>
            0 -1 45 4.3472915422171354e-04</internalNodes>
          <leafValues>
            -4.4286161661148071e-01 3.0863285064697266e-01</leafValues></_>
        <_>
          <internalNodes>
            0 -1 47 6.4578810706734657e-03</internalNodes>
          <leafValues>
            -2.0974591374397278e-01 6.9180160760879517e-01</leafValues></_>
        <_>
          <internalNodes>
            0 -1 55 -3.1841933378018439e-04</internalNodes>
          <leafValues>
            -9.3677330017089844e-01 1.6648396849632263e-01</leafValues></_>
        <_>
          <internalNodes>
            0 -1 25 -7.6953512616455555e-03</internalNodes>
          <leafValues>
            5.0596296787261963e-01 -2.7949407696723938e-01</leafValues></_>
        <_>
          <internalNodes>
            0 -1 24 7.4292719364166260e-04</internalNodes>
          <leafValues>
            -3.9252468943595886e-01 3.5828360915184021e-01</leafValues></_>
        <_>
          <internalNodes>
            0 -1 8 -2.9759924858808517e-02</internalNodes>
          <leafValues>
            5.9853464365005493e-01 -2.4616253376007080e-01</leafValues></_>
        <_>
          <internalNodes>
            0 -1 7 3.2771285623311996e-03</internalNodes>
          <leafValues>
            -2.8976443409919739e-01 5.0126111507415771e-01</leafValues></_>
        <_>
          <internalNodes>
            0 -1 63 2.3792039137333632e-03</internalNodes>
          <leafValues>
            2.0932224392890930e-01 -8.6328685283660889e-01</leafValues></_></weakClassifiers></_></stages>
  <features>
    <_>
      <rects>
        <_>
          0 0 2 10 -1.</_>
        <_>
          0 0 1 5 2.</_>
        <_>
          1 5 1 5 2.</_></rects>
      <tilted>0</tilted></_>
    <_>
      <rects>
        <_>
          0 2 2 22 -1.</_>
        <_>
          0 2 1 11 2.</_>
        <_>
          1 13 1 11 2.</_></rects>
      <tilted>0</tilted></_>
    <_>
      <rects>
        <_>
          0 6 2 10 -1.</_>
        <_>
          0 6 1 5 2.</_>
        <_>
          1 11 1 5 2.</_></rects>
      <tilted>0</tilted></_>
    <_>
      <rects>
        <_>
          0 7 2 15 -1.</_>
        <_>
          1 7 1 15 2.</_></rects>
      <tilted>0</tilted></_>
    <_>
      <rects>
        <_>
          1 2 2 6 -1.</_>
        <_>
          1 2 1 3 2.</_>
        <_>
          2 5 1 3 2.</_></rects>
      <tilted>0</tilted></_>
    <_>
      <rects>
        <_>
          1 3 4 13 -1.</_>
        <_>
          3 3 2 13 2.</_></rects>
      <tilted>0</tilted></_>
    <_>
      <rects>
        <_>
          1 3 8 19 -1.</_>
        <_>
          5 3 4 19 2.</_></rects>
      <tilted>0</tilted></_>
    <_>
      <rects>
        <_>
          1 4 2 6 -1.</_>
        <_>
          2 4 1 6 2.</_></rects>
      <tilted>0</tilted></_>
    <_>
      <rects>
        <_>
          1 11 6 8 -1.</_>
        <_>
          4 11 3 8 2.</_></rects>
      <tilted>0</tilted></_>
    <_>
      <rects>
        <_>
          1 17 8 3 -1.</_>
        <_>
          5 17 4 3 2.</_></rects>
      <tilted>0</tilted></_>
    <_>
      <rects>
        <_>
          1 17 10 5 -1.</_>
        <_>
          6 17 5 5 2.</_></rects>
      <tilted>0</tilted></_>
    <_>
      <rects>
        <_>
          3 2 18 16 -1.</_>
        <_>
          3 2 9 8 2.</_>
        <_>
          12 10 9 8 2.</_></rects>
      <tilted>0</tilted></_>
    <_>
      <rects>
        <_>
          3 7 14 9 -1.</_>
        <_>
          10 7 7 9 2.</_></rects>
      <tilted>0</tilted></_>
    <_>
      <rects>
        <_>
          3 7 18 8 -1.</_>
        <_>
          12 7 9 8 2.</_></rects>
      <tilted>0</tilted></_>
    <_>
      <rects>
        <_>
          3 8 6 3 -1.</_>
        <_>
          3 9 6 1 3.</_></rects>
      <tilted>0</tilted></_>
    <_>
      <rects>
        <_>
          3 8 18 2 -1.</_>
        <_>
          9 8 6 2 3.</_></rects>
      <tilted>0</tilted></_>
    <_>
      <rects>
        <_>
          3 8 7 3 -1.</_>
        <_>
          3 9 7 1 3.</_></rects>
      <tilted>0</tilted></_>
    <_>
      <rects>
        <_>
          4 4 1 16 -1.</_>
        <_>
          4 12 1 8 2.</_></rects>
      <tilted>0</tilted></_>
    <_>
      <rects>
        <_>
          4 5 12 3 -1.</_>
        <_>
          8 5 4 3 3.</_></rects>
      <tilted>0</tilted></_>
    <_>
      <rects>
        <_>
          4 6 18 14 -1.</_>
        <_>
          4 13 18 7 2.</_></rects>
      <tilted>0</tilted></_>
    <_>
      <rects>
        <_>
          5 0 3 4 -1.</_>
        <_>
          5 2 3 2 2.</_></rects>
      <tilted>0</tilted></_>
    <_>
      <rects>
        <_>
          5 7 15 5 -1.</_>
        <_>
          10 7 5 5 3.</_></rects>
      <tilted>0</tilted></_>
    <_>
      <rects>
        <_>
          5 9 8 3 -1.</_>
        <_>
          9 9 4 3 2.</_></rects>
      <tilted>0</tilted></_>
    <_>
      <rects>
        <_>
          5 11 16 5 -1.</_>
        <_>
          13 11 8 5 2.</_></rects>
      <tilted>0</tilted></_>
    <_>
      <rects>
        <_>
          5 12 2 3 -1.</_>
        <_>
          6 12 1 3 2.</_></rects>
      <tilted>0</tilted></_>
    <_>
      <rects>
        <_>
          6 0 18 2 -1.</_>
        <_>
          6 0 9 1 2.</_>
        <_>
          15 1 9 1 2.</_></rects>
      <tilted>0</tilted></_>
    <_>
      <rects>
        <_>
          6 0 12 2 -1.</_>
        <_>
          6 1 12 1 2.</_></rects>
      <tilted>0</tilted></_>
    <_>
      <rects>
        <_>
          6 1 14 15 -1.</_>
        <_>
          6 6 14 5 3.</_></rects>
      <tilted>0</tilted></_>
    <_>
      <rects>
        <_>
          6 6 7 10 -1.</_>
        <_>
          6 11 7 5 2.</_></rects>
      <tilted>0</tilted></_>
    <_>
      <rects>
        <_>
          6 8 4 6 -1.</_>
        <_>
          6 11 4 3 2.</_></rects>
      <tilted>0</tilted></_>
    <_>
      <rects>
        <_>
          6 10 6 3 -1.</_>
        <_>
          9 10 3 3 2.</_></rects>
      <tilted>0</tilted></_>
    <_>
      <rects>
        <_>
          6 15 14 4 -1.</_>
        <_>
          6 17 14 2 2.</_></rects>
      <tilted>0</tilted></_>
    <_>
      <rects>
        <_>
          7 2 4 6 -1.</_>
        <_>
          7 4 4 2 3.</_></rects>
      <tilted>0</tilted></_>
    <_>
      <rects>
        <_>
          7 4 6 12 -1.</_>
        <_>
          10 4 3 12 2.</_></rects>
      <tilted>0</tilted></_>
    <_>
      <rects>
        <_>
          7 4 9 16 -1.</_>
        <_>
          7 12 9 8 2.</_></rects>
      <tilted>0</tilted></_>
    <_>
      <rects>
        <_>
          7 7 3 8 -1.</_>
        <_>
          7 11 3 4 2.</_></rects>
      <tilted>0</tilted></_>
    <_>
      <rects>
        <_>
          7 9 4 5 -1.</_>
        <_>
          9 9 2 5 2.</_></rects>
      <tilted>0</tilted></_>
    <_>
      <rects>
        <_>
          8 4 8 3 -1.</_>
        <_>
          8 5 8 1 3.</_></rects>
      <tilted>0</tilted></_>
    <_>
      <rects>
        <_>
          8 6 14 12 -1.</_>
        <_>
          8 6 7 6 2.</_>
        <_>
          15 12 7 6 2.</_></rects>
      <tilted>0</tilted></_>
    <_>
      <rects>
        <_>
          8 7 6 3 -1.</_>
        <_>
          11 7 3 3 2.</_></rects>
      <tilted>0</tilted></_>
    <_>
      <rects>
        <_>
          8 11 3 6 -1.</_>
        <_>
          8 13 3 2 3.</_></rects>
      <tilted>0</tilted></_>
    <_>
      <rects>
        <_>
          8 11 10 11 -1.</_>
        <_>
          13 11 5 11 2.</_></rects>
      <tilted>0</tilted></_>
    <_>
      <rects>
        <_>
          8 14 1 6 -1.</_>
        <_>
          8 17 1 3 2.</_></rects>
      <tilted>0</tilted></_>
    <_>
      <rects>
        <_>
          8 18 12 6 -1.</_>
        <_>
          8 20 12 2 3.</_></rects>
      <tilted>0</tilted></_>
    <_>
      <rects>
        <_>
          9 6 8 2 -1.</_>
        <_>
          9 7 8 1 2.</_></rects>
      <tilted>0</tilted></_>
    <_>
      <rects>
        <_>
          9 8 2 2 -1.</_>
        <_>
          9 8 1 1 2.</_>
        <_>
          10 9 1 1 2.</_></rects>
      <tilted>0</tilted></_>
    <_>
      <rects>
        <_>
          9 17 3 2 -1.</_>
        <_>
          9 18 3 1 2.</_></rects>
      <tilted>0</tilted></_>
    <_>
      <rects>
        <_>
          10 0 8 2 -1.</_>
        <_>
          10 0 4 1 2.</_>
        <_>
          14 1 4 1 2.</_></rects>
      <tilted>0</tilted></_>
    <_>
      <rects>
        <_>
          10 4 5 2 -1.</_>
        <_>
          10 5 5 1 2.</_></rects>
      <tilted>0</tilted></_>
    <_>
      <rects>
        <_>
          10 8 3 10 -1.</_>
        <_>
          11 8 1 10 3.</_></rects>
      <tilted>0</tilted></_>
    <_>
      <rects>
        <_>
          10 18 2 2 -1.</_>
        <_>
          10 18 1 1 2.</_>
        <_>
          11 19 1 1 2.</_></rects>
      <tilted>0</tilted></_>
    <_>
      <rects>
        <_>
          11 8 2 2 -1.</_>
        <_>
          12 8 1 2 2.</_></rects>
      <tilted>0</tilted></_>
    <_>
      <rects>
        <_>
          11 8 2 2 -1.</_>
        <_>
          11 9 2 1 2.</_></rects>
      <tilted>0</tilted></_>
    <_>
      <rects>
        <_>
          11 8 4 2 -1.</_>
        <_>
          11 8 2 1 2.</_>
        <_>
          13 9 2 1 2.</_></rects>
      <tilted>0</tilted></_>
    <_>
      <rects>
        <_>
          11 9 4 4 -1.</_>
        <_>
          11 9 2 2 2.</_>
        <_>
          13 11 2 2 2.</_></rects>
      <tilted>0</tilted></_>
    <_>
      <rects>
        <_>
          11 18 2 2 -1.</_>
        <_>
          11 18 1 1 2.</_>
        <_>
          12 19 1 1 2.</_></rects>
      <tilted>0</tilted></_>
    <_>
      <rects>
        <_>
          12 0 2 12 -1.</_>
        <_>
          12 6 2 6 2.</_></rects>
      <tilted>0</tilted></_>
    <_>
      <rects>
        <_>
          12 0 4 4 -1.</_>
        <_>
          12 2 4 2 2.</_></rects>
      <tilted>0</tilted></_>
    <_>
      <rects>
        <_>
          12 1 3 10 -1.</_>
        <_>
          12 6 3 5 2.</_></rects>
      <tilted>0</tilted></_>
    <_>
      <rects>
        <_>
          12 2 6 12 -1.</_>
        <_>
          15 2 3 12 2.</_></rects>
      <tilted>0</tilted></_>
    <_>
      <rects>
        <_>
          12 7 6 9 -1.</_>
        <_>
          12 10 6 3 3.</_></rects>
      <tilted>0</tilted></_>
    <_>
      <rects>
        <_>
          12 8 1 8 -1.</_>
        <_>
          12 12 1 4 2.</_></rects>
      <tilted>0</tilted></_>
    <_>
      <rects>
        <_>
          12 9 2 1 -1.</_>
        <_>
          13 9 1 1 2.</_></rects>
      <tilted>0</tilted></_>
    <_>
      <rects>
        <_>
          12 12 6 8 -1.</_>
        <_>
          12 12 3 4 2.</_>
        <_>
          15 16 3 4 2.</_></rects>
      <tilted>0</tilted></_>
    <_>
      <rects>
        <_>
          12 18 7 2 -1.</_>
        <_>
          12 19 7 1 2.</_></rects>
      <tilted>0</tilted></_>
    <_>
      <rects>
        <_>
          13 1 2 16 -1.</_>
        <_>
          13 9 2 8 2.</_></rects>
      <tilted>0</tilted></_>
    <_>
      <rects>
        <_>
          13 3 2 8 -1.</_>
        <_>
          13 7 2 4 2.</_></rects>
      <tilted>0</tilted></_>
    <_>
      <rects>
        <_>
          13 3 2 12 -1.</_>
        <_>
          13 7 2 4 3.</_></rects>
      <tilted>0</tilted></_>
    <_>
      <rects>
        <_>
          13 5 2 4 -1.</_>
        <_>
          14 5 1 4 2.</_></rects>
      <tilted>0</tilted></_>
    <_>
      <rects>
        <_>
          13 19 5 2 -1.</_>
        <_>
          13 20 5 1 2.</_></rects>
      <tilted>0</tilted></_>
    <_>
      <rects>
        <_>
          14 2 2 13 -1.</_>
        <_>
          15 2 1 13 2.</_></rects>
      <tilted>0</tilted></_>
    <_>
      <rects>
        <_>
          14 4 7 10 -1.</_>
        <_>
          14 9 7 5 2.</_></rects>
      <tilted>0</tilted></_>
    <_>
      <rects>
        <_>
          14 11 10 9 -1.</_>
        <_>
          14 14 10 3 3.</_></rects>
      <tilted>0</tilted></_>
    <_>
      <rects>
        <_>
          14 17 2 4 -1.</_>
        <_>
          14 17 1 2 2.</_>
        <_>
          15 19 1 2 2.</_></rects>
      <tilted>0</tilted></_>
    <_>
      <rects>
        <_>
          15 7 3 8 -1.</_>
        <_>
          16 7 1 8 3.</_></rects>
      <tilted>0</tilted></_>
    <_>
      <rects>
        <_>
          15 8 3 5 -1.</_>
        <_>
          16 8 1 5 3.</_></rects>
      <tilted>0</tilted></_>
    <_>
      <rects>
        <_>
          15 19 1 3 -1.</_>
        <_>
          15 20 1 1 3.</_></rects>
      <tilted>0</tilted></_>
    <_>
      <rects>
        <_>
          16 9 3 6 -1.</_>
        <_>
          17 9 1 6 3.</_></rects>
      <tilted>0</tilted></_>
    <_>
      <rects>
        <_>
          16 12 3 4 -1.</_>
        <_>
          17 12 1 4 3.</_></rects>
      <tilted>0</tilted></_>
    <_>
      <rects>
        <_>
          16 17 2 2 -1.</_>
        <_>
          16 18 2 1 2.</_></rects>
      <tilted>0</tilted></_>
    <_>
      <rects>
        <_>
          18 13 6 6 -1.</_>
        <_>
          18 15 6 2 3.</_></rects>
      <tilted>0</tilted></_>
    <_>
      <rects>
        <_>
          19 9 2 6 -1.</_>
        <_>
          19 12 2 3 2.</_></rects>
      <tilted>0</tilted></_>
    <_>
      <rects>
        <_>
          21 0 2 3 -1.</_>
        <_>
          21 1 2 1 3.</_></rects>
      <tilted>0</tilted></_></features></cascade>
</opencv_storage>
