<?xml version="1.0"?>
<opencv_storage>
<cascade>
  <stageType>BOOST</stageType>
  <featureType>HAAR</featureType>
  <height>48</height>
  <width>24</width>
  <stageParams>
    <boostType>GAB</boostType>
    <minHitRate>9.9500000476837158e-01</minHitRate>
    <maxFalseAlarm>5.0000000000000000e-01</maxFalseAlarm>
    <weightTrimRate>9.4999999999999996e-01</weightTrimRate>
    <maxDepth>1</maxDepth>
    <maxWeakCount>100</maxWeakCount></stageParams>
  <featureParams>
    <maxCatCount>0</maxCatCount>
    <featSize>1</featSize>
    <mode>BASIC</mode></featureParams>
  <stageNum>14</stageNum>
  <stages>
    <!-- stage 0 -->
    <_>
      <maxWeakCount>6</maxWeakCount>
      <stageThreshold>-1.4179679155349731e+00</stageThreshold>
      <weakClassifiers>
        <_>
          <internalNodes>
            0 -1 59 -1.1392969638109207e-02</internalNodes>
          <leafValues>
            2.3851203918457031e-01 -8.3783781528472900e-01</leafValues></_>
        <_>
          <internalNodes>
            0 -1 50 -2.5184373371303082e-03</internalNodes>
          <leafValues>
            5.0321024656295776e-01 -6.2957131862640381e-01</leafValues></_>
        <_>
          <internalNodes>
            0 -1 72 7.4099691119045019e-04</internalNodes>
          <leafValues>
            -6.6675424575805664e-01 3.5667753219604492e-01</leafValues></_>
        <_>
          <internalNodes>
            0 -1 46 2.5165840983390808e-02</internalNodes>
          <leafValues>
            2.0740948617458344e-01 -9.7890186309814453e-01</leafValues></_>
        <_>
          <internalNodes>
            0 -1 79 -7.7909678220748901e-03</internalNodes>
          <leafValues>
            -9.6017813682556152e-01 2.0269981026649475e-01</leafValues></_>
        <_>
          <internalNodes>
            0 -1 54 -3.4881639294326305e-04</internalNodes>
          <leafValues>
            3.0608618259429932e-01 -6.3667654991149902e-01</leafValues></_></weakClassifiers></_>
    <!-- stage 1 -->
    <_>
      <maxWeakCount>6</maxWeakCount>
      <stageThreshold>-1.4032036066055298e+00</stageThreshold>
      <weakClassifiers>
        <_>
          <internalNodes>
            0 -1 1 -5.4521568119525909e-02</internalNodes>
          <leafValues>
            5.3846156597137451e-01 -7.5609755516052246e-01</leafValues></_>
        <_>
          <internalNodes>
            0 -1 23 2.0028397440910339e-02</internalNodes>
          <leafValues>
            -5.4651820659637451e-01 5.5277478694915771e-01</leafValues></_>
        <_>
          <internalNodes>
            0 -1 2 2.4217948317527771e-02</internalNodes>
          <leafValues>
            -3.4562048316001892e-01 7.7639389038085938e-01</leafValues></_>
        <_>
          <internalNodes>
            0 -1 69 -8.3616236224770546e-03</internalNodes>
          <leafValues>
            6.7497974634170532e-01 -3.2313877344131470e-01</leafValues></_>
        <_>
          <internalNodes>
            0 -1 56 7.4903515633195639e-04</internalNodes>
          <leafValues>
            2.6728737354278564e-01 -9.7769689559936523e-01</leafValues></_>
        <_>
          <internalNodes>
            0 -1 57 -7.9531781375408173e-04</internalNodes>
          <leafValues>
            -9.6479064226150513e-01 3.0088400840759277e-01</leafValues></_></weakClassifiers></_>
    <!-- stage 2 -->
    <_>
      <maxWeakCount>6</maxWeakCount>
      <stageThreshold>-1.4941719770431519e+00</stageThreshold>
      <weakClassifiers>
        <_>
          <internalNodes>
            0 -1 35 -5.4547032341361046e-03</internalNodes>
          <leafValues>
            2.2260274738073349e-02 -8.4574466943740845e-01</leafValues></_>
        <_>
          <internalNodes>
            0 -1 70 2.0238233264535666e-03</internalNodes>
          <leafValues>
            -7.3569518327713013e-01 2.0118008553981781e-01</leafValues></_>
        <_>
          <internalNodes>
            0 -1 99 4.2316066101193428e-03</internalNodes>
          <leafValues>
            1.7079199850559235e-01 -9.3035483360290527e-01</leafValues></_>
        <_>
          <internalNodes>
            0 -1 106 1.2741088867187500e-03</internalNodes>
          <leafValues>
            -3.2180318236351013e-01 5.7178926467895508e-01</leafValues></_>
        <_>
          <internalNodes>
            0 -1 41 -1.1821724474430084e-02</internalNodes>
          <leafValues>
            -9.6220648288726807e-01 2.1016958355903625e-01</leafValues></_>
        <_>
          <internalNodes>
            0 -1 24 1.7038155347108841e-03</internalNodes>
          <leafValues>
            1.9238108396530151e-01 -7.8071147203445435e-01</leafValues></_></weakClassifiers></_>
    <!-- stage 3 -->
    <_>
      <maxWeakCount>5</maxWeakCount>
      <stageThreshold>-1.4842278957366943e+00</stageThreshold>
      <weakClassifiers>
        <_>
          <internalNodes>
            0 -1 75 -4.1503263637423515e-03</internalNodes>
          <leafValues>
            4.1353383660316467e-01 -7.8947371244430542e-01</leafValues></_>
        <_>
          <internalNodes>
            0 -1 27 -1.7045436426997185e-02</internalNodes>
          <leafValues>
            4.0971651673316956e-01 -6.9330596923828125e-01</leafValues></_>
        <_>
          <internalNodes>
            0 -1 80 -5.6876015150919557e-04</internalNodes>
          <leafValues>
            6.7031186819076538e-01 -4.4797426462173462e-01</leafValues></_>
        <_>
          <internalNodes>
            0 -1 113 1.5213226433843374e-03</internalNodes>
          <leafValues>
            -3.4627795219421387e-01 6.8456339836120605e-01</leafValues></_>
        <_>
          <internalNodes>
            0 -1 114 -4.5559452846646309e-03</internalNodes>
          <leafValues>
            7.9280394315719604e-01 -2.1014973521232605e-01</leafValues></_></weakClassifiers></_>
    <!-- stage 4 -->
    <_>
      <maxWeakCount>7</maxWeakCount>
      <stageThreshold>-1.6333234310150146e+00</stageThreshold>
      <weakClassifiers>
        <_>
          <internalNodes>
            0 -1 100 -1.9429094390943646e-03</internalNodes>
          <leafValues>
            2.5892856717109680e-01 -7.5895142555236816e-01</leafValues></_>
        <_>
          <internalNodes>
            0 -1 28 -2.6399053633213043e-02</internalNodes>
          <leafValues>
            4.8989480733871460e-01 -5.1516479253768921e-01</leafValues></_>
        <_>
          <internalNodes>
            0 -1 42 -2.2611753083765507e-03</internalNodes>
          <leafValues>
            4.3479183316230774e-01 -4.5142933726310730e-01</leafValues></_>
        <_>
          <internalNodes>
            0 -1 108 -1.1517921229824424e-03</internalNodes>
          <leafValues>
            5.4606229066848755e-01 -3.2360687851905823e-01</leafValues></_>
        <_>
          <internalNodes>
            0 -1 18 -2.8763681184500456e-03</internalNodes>
          <leafValues>
            5.9248512983322144e-01 -2.8798034787178040e-01</leafValues></_>
        <_>
          <internalNodes>
            0 -1 64 -1.5838004183024168e-03</internalNodes>
          <leafValues>
            4.6265059709548950e-01 -3.8522502779960632e-01</leafValues></_>
        <_>
          <internalNodes>
            0 -1 43 -5.9059448540210724e-03</internalNodes>
          <leafValues>
            -9.5424669981002808e-01 2.1936519443988800e-01</leafValues></_></weakClassifiers></_>
    <!-- stage 5 -->
    <_>
      <maxWeakCount>7</maxWeakCount>
      <stageThreshold>-1.4271687269210815e+00</stageThreshold>
      <weakClassifiers>
        <_>
          <internalNodes>
            0 -1 39 1.1555396020412445e-02</internalNodes>
          <leafValues>
            -7.4645096063613892e-01 7.9118028283119202e-02</leafValues></_>
        <_>
          <internalNodes>
            0 -1 38 -1.4295890927314758e-02</internalNodes>
          <leafValues>
            5.5935597419738770e-01 -3.8629546761512756e-01</leafValues></_>
        <_>
          <internalNodes>
            0 -1 110 -3.9601139724254608e-03</internalNodes>
          <leafValues>
            5.2940976619720459e-01 -3.3508944511413574e-01</leafValues></_>
        <_>
          <internalNodes>
            0 -1 89 -3.8492496241815388e-04</internalNodes>
          <leafValues>
            -9.7564113140106201e-01 1.8849512934684753e-01</leafValues></_>
        <_>
          <internalNodes>
            0 -1 88 2.3424768005497754e-04</internalNodes>
          <leafValues>
            2.1444140374660492e-01 -8.9221656322479248e-01</leafValues></_>
        <_>
          <internalNodes>
            0 -1 10 3.7704057991504669e-02</internalNodes>
          <leafValues>
            -3.0368781089782715e-01 5.8237922191619873e-01</leafValues></_>
        <_>
          <internalNodes>
            0 -1 25 2.5093033909797668e-03</internalNodes>
          <leafValues>
            1.8357715010643005e-01 -9.3789255619049072e-01</leafValues></_></weakClassifiers></_>
    <!-- stage 6 -->
    <_>
      <maxWeakCount>8</maxWeakCount>
      <stageThreshold>-1.4638992547988892e+00</stageThreshold>
      <weakClassifiers>
        <_>
          <internalNodes>
            0 -1 102 3.7499470636248589e-03</internalNodes>
          <leafValues>
            -7.0126736164093018e-01 2.5514402985572815e-01</leafValues></_>
        <_>
          <internalNodes>
            0 -1 82 -3.6243419162929058e-03</internalNodes>
          <leafValues>
            4.1817909479141235e-01 -4.4565042853355408e-01</leafValues></_>
        <_>
          <internalNodes>
            0 -1 45 -1.9708976615220308e-03</internalNodes>
          <leafValues>
            2.9199481010437012e-01 -5.8681666851043701e-01</leafValues></_>
        <_>
          <internalNodes>
            0 -1 32 1.3524232432246208e-02</internalNodes>
          <leafValues>
            1.6007465124130249e-01 -8.9642286300659180e-01</leafValues></_>
        <_>
          <internalNodes>
            0 -1 112 2.7810900937765837e-03</internalNodes>
          <leafValues>
            -2.6444622874259949e-01 5.8489966392517090e-01</leafValues></_>
        <_>
          <internalNodes>
            0 -1 61 6.8996218033134937e-04</internalNodes>
          <leafValues>
            -5.0202661752700806e-01 3.1486150622367859e-01</leafValues></_>
        <_>
          <internalNodes>
            0 -1 21 1.4648837968707085e-02</internalNodes>
          <leafValues>
            2.1077728271484375e-01 -8.9625799655914307e-01</leafValues></_>
        <_>
          <internalNodes>
            0 -1 71 -9.0117063373327255e-03</internalNodes>
          <leafValues>
            -9.4730025529861450e-01 9.1773688793182373e-02</leafValues></_></weakClassifiers></_>
    <!-- stage 7 -->
    <_>
      <maxWeakCount>9</maxWeakCount>
      <stageThreshold>-1.6347471475601196e+00</stageThreshold>
      <weakClassifiers>
        <_>
          <internalNodes>
            0 -1 81 7.7746622264385223e-03</internalNodes>
          <leafValues>
            -7.6380687952041626e-01 -1.0857763700187206e-03</leafValues></_>
        <_>
          <internalNodes>
            0 -1 31 -1.0322042508050799e-03</internalNodes>
          <leafValues>
            3.7186098098754883e-01 -4.9131712317466736e-01</leafValues></_>
        <_>
          <internalNodes>
            0 -1 78 5.2291145548224449e-03</internalNodes>
          <leafValues>
            1.7284663021564484e-01 -8.0234110355377197e-01</leafValues></_>
        <_>
          <internalNodes>
            0 -1 33 5.7887258008122444e-03</internalNodes>
          <leafValues>
            -2.5501295924186707e-01 5.8592498302459717e-01</leafValues></_>
        <_>
          <internalNodes>
            0 -1 30 3.7180565414018929e-04</internalNodes>
          <leafValues>
            -4.9176204204559326e-01 3.2430878281593323e-01</leafValues></_>
        <_>
          <internalNodes>
            0 -1 84 -6.0508437454700470e-03</internalNodes>
          <leafValues>
            4.0756782889366150e-01 -3.8188517093658447e-01</leafValues></_>
        <_>
          <internalNodes>
            0 -1 67 7.0300907827913761e-04</internalNodes>
          <leafValues>
            1.2853485345840454e-01 -9.0299552679061890e-01</leafValues></_>
        <_>
          <internalNodes>
            0 -1 58 -9.4382336828857660e-04</internalNodes>
          <leafValues>
            -9.4421690702438354e-01 1.3929015398025513e-01</leafValues></_>
        <_>
          <internalNodes>
            0 -1 4 -4.1081807576119900e-03</internalNodes>
          <leafValues>
            4.4421783089637756e-01 -3.4234613180160522e-01</leafValues></_></weakClassifiers></_>
    <!-- stage 8 -->
    <_>
      <maxWeakCount>10</maxWeakCount>
      <stageThreshold>-1.8005686998367310e+00</stageThreshold>
      <weakClassifiers>
        <_>
          <internalNodes>
            0 -1 87 2.4349987506866455e-03</internalNodes>
          <leafValues>
            -7.8475338220596313e-01 -8.8967971503734589e-02</leafValues></_>
        <_>
          <internalNodes>
            0 -1 7 -3.9686001837253571e-03</internalNodes>
          <leafValues>
            5.9290039539337158e-01 -3.4246546030044556e-01</leafValues></_>
        <_>
          <internalNodes>
            0 -1 109 -7.7523575164377689e-03</internalNodes>
          <leafValues>
            4.4053348898887634e-01 -3.3305981755256653e-01</leafValues></_>
        <_>
          <internalNodes>
            0 -1 17 2.3425845429301262e-03</internalNodes>
          <leafValues>
            -2.0842792093753815e-01 6.2270313501358032e-01</leafValues></_>
        <_>
          <internalNodes>
            0 -1 53 -2.3778930306434631e-02</internalNodes>
          <leafValues>
            -8.9523494243621826e-01 1.7186953127384186e-01</leafValues></_>
        <_>
          <internalNodes>
            0 -1 65 -4.4909550342708826e-04</internalNodes>
          <leafValues>
            3.1110423803329468e-01 -5.8820664882659912e-01</leafValues></_>
        <_>
          <internalNodes>
            0 -1 90 1.9217366352677345e-03</internalNodes>
          <leafValues>
            -2.9313245415687561e-01 5.1064813137054443e-01</leafValues></_>
        <_>
          <internalNodes>
            0 -1 86 1.3724341988563538e-02</internalNodes>
          <leafValues>
            1.8695525825023651e-01 -8.9637416601181030e-01</leafValues></_>
        <_>
          <internalNodes>
            0 -1 26 5.6446135044097900e-02</internalNodes>
          <leafValues>
            -3.0394893884658813e-01 5.3622645139694214e-01</leafValues></_>
        <_>
          <internalNodes>
            0 -1 19 -2.9916692525148392e-02</internalNodes>
          <leafValues>
            6.9460117816925049e-01 -2.8168618679046631e-01</leafValues></_></weakClassifiers></_>
    <!-- stage 9 -->
    <_>
      <maxWeakCount>9</maxWeakCount>
      <stageThreshold>-1.5489860773086548e+00</stageThreshold>
      <weakClassifiers>
        <_>
          <internalNodes>
            0 -1 104 3.5131876356899738e-03</internalNodes>
          <leafValues>
            -7.5396543741226196e-01 -6.3343718647956848e-02</leafValues></_>
        <_>
          <internalNodes>
            0 -1 9 -5.0519024953246117e-03</internalNodes>
          <leafValues>
            2.5837540626525879e-01 -4.7584557533264160e-01</leafValues></_>
        <_>
          <internalNodes>
            0 -1 29 -9.2686153948307037e-03</internalNodes>
          <leafValues>
            -9.1338717937469482e-01 1.1570686846971512e-01</leafValues></_>
        <_>
          <internalNodes>
            0 -1 47 1.8466994515620172e-04</internalNodes>
          <leafValues>
            -4.3684664368629456e-01 3.0201935768127441e-01</leafValues></_>
        <_>
          <internalNodes>
            0 -1 62 8.9577417820692062e-03</internalNodes>
          <leafValues>
            -2.3448365926742554e-01 5.8440130949020386e-01</leafValues></_>
        <_>
          <internalNodes>
            0 -1 73 -3.3456580713391304e-03</internalNodes>
          <leafValues>
            6.0008084774017334e-01 -2.5144109129905701e-01</leafValues></_>
        <_>
          <internalNodes>
            0 -1 52 1.6724730812711641e-05</internalNodes>
          <leafValues>
            -4.5740810036659241e-01 2.8935861587524414e-01</leafValues></_>
        <_>
          <internalNodes>
            0 -1 101 -5.5397893302142620e-03</internalNodes>
          <leafValues>
            -9.3460083007812500e-01 1.8129490315914154e-01</leafValues></_>
        <_>
          <internalNodes>
            0 -1 49 -2.1342132240533829e-03</internalNodes>
          <leafValues>
            -8.2638520002365112e-01 1.1700618267059326e-01</leafValues></_></weakClassifiers></_>
    <!-- stage 10 -->
    <_>
      <maxWeakCount>9</maxWeakCount>
      <stageThreshold>-1.3961875438690186e+00</stageThreshold>
      <weakClassifiers>
        <_>
          <internalNodes>
            0 -1 51 9.3740019947290421e-03</internalNodes>
          <leafValues>
            -7.0143657922744751e-01 7.6923079788684845e-02</leafValues></_>
        <_>
          <internalNodes>
            0 -1 60 2.6345110964030027e-03</internalNodes>
          <leafValues>
            -5.6054306030273438e-01 1.6393285989761353e-01</leafValues></_>
        <_>
          <internalNodes>
            0 -1 34 -4.0448449552059174e-02</internalNodes>
          <leafValues>
            3.6278662085533142e-01 -3.7923875451087952e-01</leafValues></_>
        <_>
          <internalNodes>
            0 -1 5 1.6642589122056961e-02</internalNodes>
          <leafValues>
            -1.9681617617607117e-01 6.3449633121490479e-01</leafValues></_>
        <_>
          <internalNodes>
            0 -1 3 -6.2953107990324497e-03</internalNodes>
          <leafValues>
            5.1679241657257080e-01 -3.0892226099967957e-01</leafValues></_>
        <_>
          <internalNodes>
            0 -1 37 -3.0209127813577652e-02</internalNodes>
          <leafValues>
            -9.4050902128219604e-01 1.6986039280891418e-01</leafValues></_>
        <_>
          <internalNodes>
            0 -1 94 1.8737032078206539e-03</internalNodes>
          <leafValues>
            -4.0381288528442383e-01 2.8859946131706238e-01</leafValues></_>
        <_>
          <internalNodes>
            0 -1 116 3.7599282222799957e-04</internalNodes>
          <leafValues>
            -2.6562833786010742e-01 4.7901362180709839e-01</leafValues></_>
        <_>
          <internalNodes>
            0 -1 115 2.4267814587801695e-03</internalNodes>
          <leafValues>
            -1.6653808951377869e-01 6.5182876586914063e-01</leafValues></_></weakClassifiers></_>
    <!-- stage 11 -->
    <_>
      <maxWeakCount>12</maxWeakCount>
      <stageThreshold>-1.6076245307922363e+00</stageThreshold>
      <weakClassifiers>
        <_>
          <internalNodes>
            0 -1 12 -6.1404015868902206e-03</internalNodes>
          <leafValues>
            1.8793503940105438e-01 -6.7705547809600830e-01</leafValues></_>
        <_>
          <internalNodes>
            0 -1 103 -1.2220710050314665e-03</internalNodes>
          <leafValues>
            3.1657603383064270e-01 -4.3537268042564392e-01</leafValues></_>
        <_>
          <internalNodes>
            0 -1 8 4.5005655847489834e-03</internalNodes>
          <leafValues>
            -2.1940711140632629e-01 6.2226438522338867e-01</leafValues></_>
        <_>
          <internalNodes>
            0 -1 68 -2.7934215031564236e-03</internalNodes>
          <leafValues>
            2.8975301980972290e-01 -4.3221598863601685e-01</leafValues></_>
        <_>
          <internalNodes>
            0 -1 66 7.4565911199897528e-04</internalNodes>
          <leafValues>
            1.2787799537181854e-01 -9.4532555341720581e-01</leafValues></_>
        <_>
          <internalNodes>
            0 -1 85 -8.1973467022180557e-03</internalNodes>
          <leafValues>
            -9.4010186195373535e-01 1.0452452301979065e-01</leafValues></_>
        <_>
          <internalNodes>
            0 -1 77 -7.4879906605929136e-04</internalNodes>
          <leafValues>
            4.1502475738525391e-01 -2.8821805119514465e-01</leafValues></_>
        <_>
          <internalNodes>
            0 -1 36 -2.1381614729762077e-02</internalNodes>
          <leafValues>
            6.2084835767745972e-01 -2.2564913332462311e-01</leafValues></_>
        <_>
          <internalNodes>
            0 -1 16 -1.2793699279427528e-02</internalNodes>
          <leafValues>
            -9.1393429040908813e-01 1.5223905444145203e-01</leafValues></_>
        <_>
          <internalNodes>
            0 -1 95 -7.1818642318248749e-03</internalNodes>
          <leafValues>
            -7.5683307647705078e-01 1.5634550154209137e-01</leafValues></_>
        <_>
          <internalNodes>
            0 -1 11 7.1446485817432404e-03</internalNodes>
          <leafValues>
            -1.9009156525135040e-01 6.9678503274917603e-01</leafValues></_>
        <_>
          <internalNodes>
            0 -1 22 2.3076028446666896e-04</internalNodes>
          <leafValues>
            -3.8731080293655396e-01 3.1939846277236938e-01</leafValues></_></weakClassifiers></_>
    <!-- stage 12 -->
    <_>
      <maxWeakCount>11</maxWeakCount>
      <stageThreshold>-1.6432138681411743e+00</stageThreshold>
      <weakClassifiers>
        <_>
          <internalNodes>
            0 -1 63 -1.0333971586078405e-03</internalNodes>
          <leafValues>
            -1.7465753853321075e-01 -7.5835865736007690e-01</leafValues></_>
        <_>
          <internalNodes>
            0 -1 15 1.3083664700388908e-02</internalNodes>
          <leafValues>
            -4.2657139897346497e-01 2.3177094757556915e-01</leafValues></_>
        <_>
          <internalNodes>
            0 -1 44 9.6928561106324196e-04</internalNodes>
          <leafValues>
            1.1859861016273499e-01 -9.1962200403213501e-01</leafValues></_>
        <_>
          <internalNodes>
            0 -1 111 4.3784047011286020e-04</internalNodes>
          <leafValues>
            -3.4484156966209412e-01 3.6826536059379578e-01</leafValues></_>
        <_>
          <internalNodes>
            0 -1 92 8.0025270581245422e-03</internalNodes>
          <leafValues>
            -1.9646421074867249e-01 6.7096316814422607e-01</leafValues></_>
        <_>
          <internalNodes>
            0 -1 105 3.5236164694651961e-04</internalNodes>
          <leafValues>
            -2.9345962405204773e-01 3.9370879530906677e-01</leafValues></_>
        <_>
          <internalNodes>
            0 -1 76 -1.4487843960523605e-02</internalNodes>
          <leafValues>
            -8.0341684818267822e-01 1.4381837844848633e-01</leafValues></_>
        <_>
          <internalNodes>
            0 -1 107 -1.3212354853749275e-02</internalNodes>
          <leafValues>
            5.6223803758621216e-01 -2.0912982523441315e-01</leafValues></_>
        <_>
          <internalNodes>
            0 -1 13 -6.6511914134025574e-02</internalNodes>
          <leafValues>
            5.8982157707214355e-01 -1.9761587679386139e-01</leafValues></_>
        <_>
          <internalNodes>
            0 -1 12 -4.0873284451663494e-03</internalNodes>
          <leafValues>
            6.0593932867050171e-01 -1.8899556994438171e-01</leafValues></_>
        <_>
          <internalNodes>
            0 -1 93 2.1663805819116533e-04</internalNodes>
          <leafValues>
            1.6749218106269836e-01 -9.7007405757904053e-01</leafValues></_></weakClassifiers></_>
    <!-- stage 13 -->
    <_>
      <maxWeakCount>13</maxWeakCount>
      <stageThreshold>-1.8245390653610229e+00</stageThreshold>
      <weakClassifiers>
        <_>
          <internalNodes>
            0 -1 48 -2.8602392412722111e-03</internalNodes>
          <leafValues>
            -2.7685695886611938e-01 -8.0561953783035278e-01</leafValues></_>
        <_>
          <internalNodes>
            0 -1 0 5.8106929063796997e-03</internalNodes>
          <leafValues>
            -2.9157683253288269e-01 5.8399420976638794e-01</leafValues></_>
        <_>
          <internalNodes>
            0 -1 55 -1.0262553114444017e-03</internalNodes>
          <leafValues>
            3.4069833159446716e-01 -3.3567687869071960e-01</leafValues></_>
        <_>
          <internalNodes>
            0 -1 74 -7.7571685324073769e-06</internalNodes>
          <leafValues>
            2.6222825050354004e-01 -4.5955687761306763e-01</leafValues></_>
        <_>
          <internalNodes>
            0 -1 91 -1.2404538691043854e-02</internalNodes>
          <leafValues>
            -8.6858052015304565e-01 1.6823245584964752e-01</leafValues></_>
        <_>
          <internalNodes>
            0 -1 98 -3.4114643931388855e-03</internalNodes>
          <leafValues>
            4.7344172000885010e-01 -2.7628785371780396e-01</leafValues></_>
        <_>
          <internalNodes>
            0 -1 96 1.6483974177390337e-03</internalNodes>
          <leafValues>
            -1.2874242663383484e-01 7.7157300710678101e-01</leafValues></_>
        <_>
          <internalNodes>
            0 -1 97 -1.3905379921197891e-02</internalNodes>
          <leafValues>
            5.4303318262100220e-01 -2.0670174062252045e-01</leafValues></_>
        <_>
          <internalNodes>
            0 -1 83 -3.2607233151793480e-04</internalNodes>
          <leafValues>
            -8.4773701429367065e-01 1.4948204159736633e-01</leafValues></_>
        <_>
          <internalNodes>
            0 -1 14 3.7449233233928680e-02</internalNodes>
          <leafValues>
            -3.0971580743789673e-01 3.6738649010658264e-01</leafValues></_>
        <_>
          <internalNodes>
            0 -1 40 -2.3862386122345924e-02</internalNodes>
          <leafValues>
            -9.5977497100830078e-01 1.1856691539287567e-01</leafValues></_>
        <_>
          <internalNodes>
            0 -1 6 -1.5050007496029139e-03</internalNodes>
          <leafValues>
            6.8434733152389526e-01 -1.8770423531532288e-01</leafValues></_>
        <_>
          <internalNodes>
            0 -1 20 1.0468258522450924e-02</internalNodes>
          <leafValues>
            -1.4934821426868439e-01 7.1236693859100342e-01</leafValues></_></weakClassifiers></_></stages>
  <features>
    <_>
      <rects>
        <_>
          0 0 20 2 -1.</_>
        <_>
          0 0 10 1 2.</_>
        <_>
          10 1 10 1 2.</_></rects>
      <tilted>0</tilted></_>
    <_>
      <rects>
        <_>
          0 4 10 15 -1.</_>
        <_>
          5 4 5 15 2.</_></rects>
      <tilted>0</tilted></_>
    <_>
      <rects>
        <_>
          0 15 6 17 -1.</_>
        <_>
          3 15 3 17 2.</_></rects>
      <tilted>0</tilted></_>
    <_>
      <rects>
        <_>
          0 18 4 9 -1.</_>
        <_>
          2 18 2 9 2.</_></rects>
      <tilted>0</tilted></_>
    <_>
      <rects>
        <_>
          0 21 6 7 -1.</_>
        <_>
          2 21 2 7 3.</_></rects>
      <tilted>0</tilted></_>
    <_>
      <rects>
        <_>
          0 22 6 7 -1.</_>
        <_>
          3 22 3 7 2.</_></rects>
      <tilted>0</tilted></_>
    <_>
      <rects>
        <_>
          0 45 2 3 -1.</_>
        <_>
          0 46 2 1 3.</_></rects>
      <tilted>0</tilted></_>
    <_>
      <rects>
        <_>
          0 46 24 2 -1.</_>
        <_>
          0 46 12 1 2.</_>
        <_>
          12 47 12 1 2.</_></rects>
      <tilted>0</tilted></_>
    <_>
      <rects>
        <_>
          0 46 24 2 -1.</_>
        <_>
          0 47 24 1 2.</_></rects>
      <tilted>0</tilted></_>
    <_>
      <rects>
        <_>
          1 1 18 4 -1.</_>
        <_>
          1 1 9 2 2.</_>
        <_>
          10 3 9 2 2.</_></rects>
      <tilted>0</tilted></_>
    <_>
      <rects>
        <_>
          1 7 6 30 -1.</_>
        <_>
          1 7 3 15 2.</_>
        <_>
          4 22 3 15 2.</_></rects>
      <tilted>0</tilted></_>
    <_>
      <rects>
        <_>
          1 16 2 13 -1.</_>
        <_>
          2 16 1 13 2.</_></rects>
      <tilted>0</tilted></_>
    <_>
      <rects>
        <_>
          1 46 23 2 -1.</_>
        <_>
          1 47 23 1 2.</_></rects>
      <tilted>0</tilted></_>
    <_>
      <rects>
        <_>
          2 0 18 7 -1.</_>
        <_>
          8 0 6 7 3.</_></rects>
      <tilted>0</tilted></_>
    <_>
      <rects>
        <_>
          2 7 8 38 -1.</_>
        <_>
          2 7 4 19 2.</_>
        <_>
          6 26 4 19 2.</_></rects>
      <tilted>0</tilted></_>
    <_>
      <rects>
        <_>
          2 14 8 20 -1.</_>
        <_>
          2 14 4 10 2.</_>
        <_>
          6 24 4 10 2.</_></rects>
      <tilted>0</tilted></_>
    <_>
      <rects>
        <_>
          2 20 18 2 -1.</_>
        <_>
          8 20 6 2 3.</_></rects>
      <tilted>0</tilted></_>
    <_>
      <rects>
        <_>
          2 46 22 2 -1.</_>
        <_>
          2 46 11 1 2.</_>
        <_>
          13 47 11 1 2.</_></rects>
      <tilted>0</tilted></_>
    <_>
      <rects>
        <_>
          3 3 2 13 -1.</_>
        <_>
          4 3 1 13 2.</_></rects>
      <tilted>0</tilted></_>
    <_>
      <rects>
        <_>
          3 17 6 15 -1.</_>
        <_>
          6 17 3 15 2.</_></rects>
      <tilted>0</tilted></_>
    <_>
      <rects>
        <_>
          4 3 8 6 -1.</_>
        <_>
          4 3 4 3 2.</_>
        <_>
          8 6 4 3 2.</_></rects>
      <tilted>0</tilted></_>
    <_>
      <rects>
        <_>
          4 5 10 15 -1.</_>
        <_>
          4 10 10 5 3.</_></rects>
      <tilted>0</tilted></_>
    <_>
      <rects>
        <_>
          4 6 18 2 -1.</_>
        <_>
          4 6 9 1 2.</_>
        <_>
          13 7 9 1 2.</_></rects>
      <tilted>0</tilted></_>
    <_>
      <rects>
        <_>
          4 14 8 22 -1.</_>
        <_>
          4 14 4 11 2.</_>
        <_>
          8 25 4 11 2.</_></rects>
      <tilted>0</tilted></_>
    <_>
      <rects>
        <_>
          4 24 18 1 -1.</_>
        <_>
          10 24 6 1 3.</_></rects>
      <tilted>0</tilted></_>
    <_>
      <rects>
        <_>
          4 29 16 4 -1.</_>
        <_>
          4 31 16 2 2.</_></rects>
      <tilted>0</tilted></_>
    <_>
      <rects>
        <_>
          4 30 18 14 -1.</_>
        <_>
          13 30 9 14 2.</_></rects>
      <tilted>0</tilted></_>
    <_>
      <rects>
        <_>
          5 1 9 15 -1.</_>
        <_>
          5 6 9 5 3.</_></rects>
      <tilted>0</tilted></_>
    <_>
      <rects>
        <_>
          5 4 18 4 -1.</_>
        <_>
          11 4 6 4 3.</_></rects>
      <tilted>0</tilted></_>
    <_>
      <rects>
        <_>
          5 8 7 12 -1.</_>
        <_>
          5 12 7 4 3.</_></rects>
      <tilted>0</tilted></_>
    <_>
      <rects>
        <_>
          5 9 11 6 -1.</_>
        <_>
          5 11 11 2 3.</_></rects>
      <tilted>0</tilted></_>
    <_>
      <rects>
        <_>
          5 11 2 4 -1.</_>
        <_>
          6 11 1 4 2.</_></rects>
      <tilted>0</tilted></_>
    <_>
      <rects>
        <_>
          5 19 18 8 -1.</_>
        <_>
          11 19 6 8 3.</_></rects>
      <tilted>0</tilted></_>
    <_>
      <rects>
        <_>
          5 20 4 12 -1.</_>
        <_>
          7 20 2 12 2.</_></rects>
      <tilted>0</tilted></_>
    <_>
      <rects>
        <_>
          6 1 15 14 -1.</_>
        <_>
          6 8 15 7 2.</_></rects>
      <tilted>0</tilted></_>
    <_>
      <rects>
        <_>
          6 3 9 4 -1.</_>
        <_>
          6 5 9 2 2.</_></rects>
      <tilted>0</tilted></_>
    <_>
      <rects>
        <_>
          6 10 6 11 -1.</_>
        <_>
          8 10 2 11 3.</_></rects>
      <tilted>0</tilted></_>
    <_>
      <rects>
        <_>
          6 12 17 18 -1.</_>
        <_>
          6 18 17 6 3.</_></rects>
      <tilted>0</tilted></_>
    <_>
      <rects>
        <_>
          6 18 6 6 -1.</_>
        <_>
          8 18 2 6 3.</_></rects>
      <tilted>0</tilted></_>
    <_>
      <rects>
        <_>
          6 19 6 14 -1.</_>
        <_>
          6 19 3 7 2.</_>
        <_>
          9 26 3 7 2.</_></rects>
      <tilted>0</tilted></_>
    <_>
      <rects>
        <_>
          6 19 15 13 -1.</_>
        <_>
          11 19 5 13 3.</_></rects>
      <tilted>0</tilted></_>
    <_>
      <rects>
        <_>
          6 22 15 5 -1.</_>
        <_>
          11 22 5 5 3.</_></rects>
      <tilted>0</tilted></_>
    <_>
      <rects>
        <_>
          6 30 5 10 -1.</_>
        <_>
          6 35 5 5 2.</_></rects>
      <tilted>0</tilted></_>
    <_>
      <rects>
        <_>
          6 32 11 9 -1.</_>
        <_>
          6 35 11 3 3.</_></rects>
      <tilted>0</tilted></_>
    <_>
      <rects>
        <_>
          6 35 13 3 -1.</_>
        <_>
          6 36 13 1 3.</_></rects>
      <tilted>0</tilted></_>
    <_>
      <rects>
        <_>
          7 4 7 6 -1.</_>
        <_>
          7 6 7 2 3.</_></rects>
      <tilted>0</tilted></_>
    <_>
      <rects>
        <_>
          7 6 11 21 -1.</_>
        <_>
          7 13 11 7 3.</_></rects>
      <tilted>0</tilted></_>
    <_>
      <rects>
        <_>
          7 14 6 6 -1.</_>
        <_>
          7 17 6 3 2.</_></rects>
      <tilted>0</tilted></_>
    <_>
      <rects>
        <_>
          7 15 10 12 -1.</_>
        <_>
          7 15 5 6 2.</_>
        <_>
          12 21 5 6 2.</_></rects>
      <tilted>0</tilted></_>
    <_>
      <rects>
        <_>
          7 16 12 4 -1.</_>
        <_>
          7 16 6 2 2.</_>
        <_>
          13 18 6 2 2.</_></rects>
      <tilted>0</tilted></_>
    <_>
      <rects>
        <_>
          7 20 6 2 -1.</_>
        <_>
          9 20 2 2 3.</_></rects>
      <tilted>0</tilted></_>
    <_>
      <rects>
        <_>
          7 22 6 12 -1.</_>
        <_>
          7 22 3 6 2.</_>
        <_>
          10 28 3 6 2.</_></rects>
      <tilted>0</tilted></_>
    <_>
      <rects>
        <_>
          7 22 4 2 -1.</_>
        <_>
          7 23 4 1 2.</_></rects>
      <tilted>0</tilted></_>
    <_>
      <rects>
        <_>
          7 23 15 9 -1.</_>
        <_>
          12 23 5 9 3.</_></rects>
      <tilted>0</tilted></_>
    <_>
      <rects>
        <_>
          7 23 15 10 -1.</_>
        <_>
          12 23 5 10 3.</_></rects>
      <tilted>0</tilted></_>
    <_>
      <rects>
        <_>
          7 32 4 6 -1.</_>
        <_>
          7 35 4 3 2.</_></rects>
      <tilted>0</tilted></_>
    <_>
      <rects>
        <_>
          7 34 11 3 -1.</_>
        <_>
          7 35 11 1 3.</_></rects>
      <tilted>0</tilted></_>
    <_>
      <rects>
        <_>
          7 34 13 3 -1.</_>
        <_>
          7 35 13 1 3.</_></rects>
      <tilted>0</tilted></_>
    <_>
      <rects>
        <_>
          7 39 11 3 -1.</_>
        <_>
          7 40 11 1 3.</_></rects>
      <tilted>0</tilted></_>
    <_>
      <rects>
        <_>
          8 1 9 6 -1.</_>
        <_>
          8 4 9 3 2.</_></rects>
      <tilted>0</tilted></_>
    <_>
      <rects>
        <_>
          8 6 8 9 -1.</_>
        <_>
          8 9 8 3 3.</_></rects>
      <tilted>0</tilted></_>
    <_>
      <rects>
        <_>
          8 8 5 6 -1.</_>
        <_>
          8 10 5 2 3.</_></rects>
      <tilted>0</tilted></_>
    <_>
      <rects>
        <_>
          8 15 6 6 -1.</_>
        <_>
          10 15 2 6 3.</_></rects>
      <tilted>0</tilted></_>
    <_>
      <rects>
        <_>
          8 19 2 4 -1.</_>
        <_>
          9 19 1 4 2.</_></rects>
      <tilted>0</tilted></_>
    <_>
      <rects>
        <_>
          8 20 6 6 -1.</_>
        <_>
          8 20 3 3 2.</_>
        <_>
          11 23 3 3 2.</_></rects>
      <tilted>0</tilted></_>
    <_>
      <rects>
        <_>
          8 24 12 9 -1.</_>
        <_>
          12 24 4 9 3.</_></rects>
      <tilted>0</tilted></_>
    <_>
      <rects>
        <_>
          8 33 11 3 -1.</_>
        <_>
          8 34 11 1 3.</_></rects>
      <tilted>0</tilted></_>
    <_>
      <rects>
        <_>
          8 39 11 3 -1.</_>
        <_>
          8 40 11 1 3.</_></rects>
      <tilted>0</tilted></_>
    <_>
      <rects>
        <_>
          9 3 5 6 -1.</_>
        <_>
          9 5 5 2 3.</_></rects>
      <tilted>0</tilted></_>
    <_>
      <rects>
        <_>
          9 5 6 8 -1.</_>
        <_>
          11 5 2 8 3.</_></rects>
      <tilted>0</tilted></_>
    <_>
      <rects>
        <_>
          9 5 7 12 -1.</_>
        <_>
          9 9 7 4 3.</_></rects>
      <tilted>0</tilted></_>
    <_>
      <rects>
        <_>
          9 6 6 18 -1.</_>
        <_>
          9 12 6 6 3.</_></rects>
      <tilted>0</tilted></_>
    <_>
      <rects>
        <_>
          9 7 7 4 -1.</_>
        <_>
          9 9 7 2 2.</_></rects>
      <tilted>0</tilted></_>
    <_>
      <rects>
        <_>
          9 8 2 12 -1.</_>
        <_>
          10 8 1 12 2.</_></rects>
      <tilted>0</tilted></_>
    <_>
      <rects>
        <_>
          9 12 5 2 -1.</_>
        <_>
          9 13 5 1 2.</_></rects>
      <tilted>0</tilted></_>
    <_>
      <rects>
        <_>
          9 18 4 10 -1.</_>
        <_>
          9 18 2 5 2.</_>
        <_>
          11 23 2 5 2.</_></rects>
      <tilted>0</tilted></_>
    <_>
      <rects>
        <_>
          9 25 12 9 -1.</_>
        <_>
          13 25 4 9 3.</_></rects>
      <tilted>0</tilted></_>
    <_>
      <rects>
        <_>
          10 7 2 3 -1.</_>
        <_>
          11 7 1 3 2.</_></rects>
      <tilted>0</tilted></_>
    <_>
      <rects>
        <_>
          10 7 5 15 -1.</_>
        <_>
          10 12 5 5 3.</_></rects>
      <tilted>0</tilted></_>
    <_>
      <rects>
        <_>
          10 8 6 12 -1.</_>
        <_>
          10 14 6 6 2.</_></rects>
      <tilted>0</tilted></_>
    <_>
      <rects>
        <_>
          10 9 2 2 -1.</_>
        <_>
          11 9 1 2 2.</_></rects>
      <tilted>0</tilted></_>
    <_>
      <rects>
        <_>
          10 16 6 6 -1.</_>
        <_>
          12 16 2 6 3.</_></rects>
      <tilted>0</tilted></_>
    <_>
      <rects>
        <_>
          10 19 4 10 -1.</_>
        <_>
          10 19 2 5 2.</_>
        <_>
          12 24 2 5 2.</_></rects>
      <tilted>0</tilted></_>
    <_>
      <rects>
        <_>
          11 24 4 3 -1.</_>
        <_>
          11 25 4 1 3.</_></rects>
      <tilted>0</tilted></_>
    <_>
      <rects>
        <_>
          12 1 4 9 -1.</_>
        <_>
          12 4 4 3 3.</_></rects>
      <tilted>0</tilted></_>
    <_>
      <rects>
        <_>
          12 10 7 9 -1.</_>
        <_>
          12 13 7 3 3.</_></rects>
      <tilted>0</tilted></_>
    <_>
      <rects>
        <_>
          12 19 8 11 -1.</_>
        <_>
          16 19 4 11 2.</_></rects>
      <tilted>0</tilted></_>
    <_>
      <rects>
        <_>
          12 20 4 10 -1.</_>
        <_>
          12 20 2 5 2.</_>
        <_>
          14 25 2 5 2.</_></rects>
      <tilted>0</tilted></_>
    <_>
      <rects>
        <_>
          12 23 2 3 -1.</_>
        <_>
          12 24 2 1 3.</_></rects>
      <tilted>0</tilted></_>
    <_>
      <rects>
        <_>
          12 23 3 3 -1.</_>
        <_>
          12 24 3 1 3.</_></rects>
      <tilted>0</tilted></_>
    <_>
      <rects>
        <_>
          13 7 2 5 -1.</_>
        <_>
          14 7 1 5 2.</_></rects>
      <tilted>0</tilted></_>
    <_>
      <rects>
        <_>
          13 14 8 21 -1.</_>
        <_>
          17 14 4 21 2.</_></rects>
      <tilted>0</tilted></_>
    <_>
      <rects>
        <_>
          13 16 6 9 -1.</_>
        <_>
          15 16 2 9 3.</_></rects>
      <tilted>0</tilted></_>
    <_>
      <rects>
        <_>
          13 19 1 3 -1.</_>
        <_>
          13 20 1 1 3.</_></rects>
      <tilted>0</tilted></_>
    <_>
      <rects>
        <_>
          13 19 7 21 -1.</_>
        <_>
          13 26 7 7 3.</_></rects>
      <tilted>0</tilted></_>
    <_>
      <rects>
        <_>
          13 20 8 18 -1.</_>
        <_>
          13 20 4 9 2.</_>
        <_>
          17 29 4 9 2.</_></rects>
      <tilted>0</tilted></_>
    <_>
      <rects>
        <_>
          13 21 6 1 -1.</_>
        <_>
          15 21 2 1 3.</_></rects>
      <tilted>0</tilted></_>
    <_>
      <rects>
        <_>
          14 3 6 16 -1.</_>
        <_>
          16 3 2 16 3.</_></rects>
      <tilted>0</tilted></_>
    <_>
      <rects>
        <_>
          14 9 2 16 -1.</_>
        <_>
          14 9 1 8 2.</_>
        <_>
          15 17 1 8 2.</_></rects>
      <tilted>0</tilted></_>
    <_>
      <rects>
        <_>
          14 13 4 10 -1.</_>
        <_>
          14 18 4 5 2.</_></rects>
      <tilted>0</tilted></_>
    <_>
      <rects>
        <_>
          14 20 3 4 -1.</_>
        <_>
          15 20 1 4 3.</_></rects>
      <tilted>0</tilted></_>
    <_>
      <rects>
        <_>
          14 26 8 5 -1.</_>
        <_>
          18 26 4 5 2.</_></rects>
      <tilted>0</tilted></_>
    <_>
      <rects>
        <_>
          15 7 2 16 -1.</_>
        <_>
          15 7 1 8 2.</_>
        <_>
          16 15 1 8 2.</_></rects>
      <tilted>0</tilted></_>
    <_>
      <rects>
        <_>
          15 17 1 12 -1.</_>
        <_>
          15 21 1 4 3.</_></rects>
      <tilted>0</tilted></_>
    <_>
      <rects>
        <_>
          15 21 6 3 -1.</_>
        <_>
          17 21 2 3 3.</_></rects>
      <tilted>0</tilted></_>
    <_>
      <rects>
        <_>
          16 20 2 2 -1.</_>
        <_>
          17 20 1 2 2.</_></rects>
      <tilted>0</tilted></_>
    <_>
      <rects>
        <_>
          16 20 2 4 -1.</_>
        <_>
          17 20 1 4 2.</_></rects>
      <tilted>0</tilted></_>
    <_>
      <rects>
        <_>
          18 5 6 12 -1.</_>
        <_>
          18 5 3 6 2.</_>
        <_>
          21 11 3 6 2.</_></rects>
      <tilted>0</tilted></_>
    <_>
      <rects>
        <_>
          18 14 2 12 -1.</_>
        <_>
          18 14 1 6 2.</_>
        <_>
          19 20 1 6 2.</_></rects>
      <tilted>0</tilted></_>
    <_>
      <rects>
        <_>
          20 5 4 12 -1.</_>
        <_>
          20 11 4 6 2.</_></rects>
      <tilted>0</tilted></_>
    <_>
      <rects>
        <_>
          20 8 3 8 -1.</_>
        <_>
          20 12 3 4 2.</_></rects>
      <tilted>0</tilted></_>
    <_>
      <rects>
        <_>
          20 21 2 3 -1.</_>
        <_>
          21 21 1 3 2.</_></rects>
      <tilted>0</tilted></_>
    <_>
      <rects>
        <_>
          21 19 2 7 -1.</_>
        <_>
          22 19 1 7 2.</_></rects>
      <tilted>0</tilted></_>
    <_>
      <rects>
        <_>
          21 21 2 6 -1.</_>
        <_>
          22 21 1 6 2.</_></rects>
      <tilted>0</tilted></_>
    <_>
      <rects>
        <_>
          22 9 2 18 -1.</_>
        <_>
          22 9 1 9 2.</_>
        <_>
          23 18 1 9 2.</_></rects>
      <tilted>0</tilted></_>
    <_>
      <rects>
        <_>
          22 18 2 8 -1.</_>
        <_>
          22 18 1 4 2.</_>
        <_>
          23 22 1 4 2.</_></rects>
      <tilted>0</tilted></_>
    <_>
      <rects>
        <_>
          22 19 2 1 -1.</_>
        <_>
          23 19 1 1 2.</_></rects>
      <tilted>0</tilted></_></features></cascade>
</opencv_storage>
