<?xml version="1.0"?>
<opencv_storage>
<cascade>
  <stageType>BOOST</stageType>
  <featureType>HAAR</featureType>
  <height>48</height>
  <width>24</width>
  <stageParams>
    <boostType>GAB</boostType>
    <minHitRate>9.9500000476837158e-01</minHitRate>
    <maxFalseAlarm>5.0000000000000000e-01</maxFalseAlarm>
    <weightTrimRate>9.4999999999999996e-01</weightTrimRate>
    <maxDepth>1</maxDepth>
    <maxWeakCount>100</maxWeakCount></stageParams>
  <featureParams>
    <maxCatCount>0</maxCatCount>
    <featSize>1</featSize>
    <mode>BASIC</mode></featureParams>
  <stageNum>17</stageNum>
  <stages>
    <!-- stage 0 -->
    <_>
      <maxWeakCount>3</maxWeakCount>
      <stageThreshold>-1.5447472333908081e+00</stageThreshold>
      <weakClassifiers>
        <_>
          <internalNodes>
            0 -1 47 -3.8770902901887894e-02</internalNodes>
          <leafValues>
            4.9694749712944031e-01 -8.7453871965408325e-01</leafValues></_>
        <_>
          <internalNodes>
            0 -1 86 -3.4981492906808853e-02</internalNodes>
          <leafValues>
            2.4465134739875793e-01 -9.5366722345352173e-01</leafValues></_>
        <_>
          <internalNodes>
            0 -1 32 -4.6560019254684448e-02</internalNodes>
          <leafValues>
            2.8345867991447449e-01 -8.1940013170242310e-01</leafValues></_></weakClassifiers></_>
    <!-- stage 1 -->
    <_>
      <maxWeakCount>4</maxWeakCount>
      <stageThreshold>-1.2738742828369141e+00</stageThreshold>
      <weakClassifiers>
        <_>
          <internalNodes>
            0 -1 38 -5.0054349005222321e-02</internalNodes>
          <leafValues>
            5.5447942018508911e-01 -8.9374577999114990e-01</leafValues></_>
        <_>
          <internalNodes>
            0 -1 77 9.4161229208111763e-04</internalNodes>
          <leafValues>
            -9.3717539310455322e-01 1.0335777699947357e-01</leafValues></_>
        <_>
          <internalNodes>
            0 -1 89 -7.4048052738362458e-06</internalNodes>
          <leafValues>
            -8.1896930932998657e-01 2.3717774450778961e-01</leafValues></_>
        <_>
          <internalNodes>
            0 -1 56 -4.1881331708282232e-04</internalNodes>
          <leafValues>
            -7.1550524234771729e-01 3.3548304438591003e-01</leafValues></_></weakClassifiers></_>
    <!-- stage 2 -->
    <_>
      <maxWeakCount>5</maxWeakCount>
      <stageThreshold>-1.5265864133834839e+00</stageThreshold>
      <weakClassifiers>
        <_>
          <internalNodes>
            0 -1 67 -3.0150029808282852e-02</internalNodes>
          <leafValues>
            2.4102564156055450e-01 -7.9072844982147217e-01</leafValues></_>
        <_>
          <internalNodes>
            0 -1 33 -8.5734188556671143e-02</internalNodes>
          <leafValues>
            3.4377214312553406e-01 -7.5640684366226196e-01</leafValues></_>
        <_>
          <internalNodes>
            0 -1 13 -4.7494503669440746e-03</internalNodes>
          <leafValues>
            1.9570328295230865e-01 -9.1934794187545776e-01</leafValues></_>
        <_>
          <internalNodes>
            0 -1 110 5.2952702390030026e-05</internalNodes>
          <leafValues>
            2.3249255120754242e-01 -9.5982062816619873e-01</leafValues></_>
        <_>
          <internalNodes>
            0 -1 0 -3.8222387433052063e-02</internalNodes>
          <leafValues>
            7.2079062461853027e-01 -3.9277461171150208e-01</leafValues></_></weakClassifiers></_>
    <!-- stage 3 -->
    <_>
      <maxWeakCount>5</maxWeakCount>
      <stageThreshold>-1.5596171617507935e+00</stageThreshold>
      <weakClassifiers>
        <_>
          <internalNodes>
            0 -1 71 -1.4778824523091316e-02</internalNodes>
          <leafValues>
            2.6343381404876709e-01 -7.9058283567428589e-01</leafValues></_>
        <_>
          <internalNodes>
            0 -1 76 -1.3980854302644730e-02</internalNodes>
          <leafValues>
            1.6605433821678162e-01 -8.7923848628997803e-01</leafValues></_>
        <_>
          <internalNodes>
            0 -1 15 1.4914250001311302e-02</internalNodes>
          <leafValues>
            -3.9997553825378418e-01 6.9036436080932617e-01</leafValues></_>
        <_>
          <internalNodes>
            0 -1 100 -1.2678372513619252e-05</internalNodes>
          <leafValues>
            3.2295283675193787e-01 -7.8729021549224854e-01</leafValues></_>
        <_>
          <internalNodes>
            0 -1 111 -4.3809332419186831e-04</internalNodes>
          <leafValues>
            -9.1774827241897583e-01 2.5217702984809875e-01</leafValues></_></weakClassifiers></_>
    <!-- stage 4 -->
    <_>
      <maxWeakCount>5</maxWeakCount>
      <stageThreshold>-1.6587853431701660e+00</stageThreshold>
      <weakClassifiers>
        <_>
          <internalNodes>
            0 -1 70 1.7145351739600301e-03</internalNodes>
          <leafValues>
            -8.6206895112991333e-01 6.4599484205245972e-02</leafValues></_>
        <_>
          <internalNodes>
            0 -1 99 -8.4135899669490755e-05</internalNodes>
          <leafValues>
            1.5145969390869141e-01 -8.6217570304870605e-01</leafValues></_>
        <_>
          <internalNodes>
            0 -1 63 -5.8456882834434509e-03</internalNodes>
          <leafValues>
            2.1674856543540955e-01 -8.4615582227706909e-01</leafValues></_>
        <_>
          <internalNodes>
            0 -1 40 -3.8522523827850819e-03</internalNodes>
          <leafValues>
            5.8137100934982300e-01 -3.8296237587928772e-01</leafValues></_>
        <_>
          <internalNodes>
            0 -1 88 6.3259142916649580e-04</internalNodes>
          <leafValues>
            -6.8339127302169800e-01 3.6911353468894958e-01</leafValues></_></weakClassifiers></_>
    <!-- stage 5 -->
    <_>
      <maxWeakCount>6</maxWeakCount>
      <stageThreshold>-1.6207870244979858e+00</stageThreshold>
      <weakClassifiers>
        <_>
          <internalNodes>
            0 -1 80 3.1488187611103058e-02</internalNodes>
          <leafValues>
            -6.9707500934600830e-01 5.9654176235198975e-01</leafValues></_>
        <_>
          <internalNodes>
            0 -1 60 -3.0583128682337701e-04</internalNodes>
          <leafValues>
            2.7204513549804688e-01 -6.5411752462387085e-01</leafValues></_>
        <_>
          <internalNodes>
            0 -1 55 -4.0556807070970535e-03</internalNodes>
          <leafValues>
            -8.1332719326019287e-01 2.4588580429553986e-01</leafValues></_>
        <_>
          <internalNodes>
            0 -1 96 -1.4841094525763765e-05</internalNodes>
          <leafValues>
            2.7765122056007385e-01 -8.0344599485397339e-01</leafValues></_>
        <_>
          <internalNodes>
            0 -1 106 -1.3849310926161706e-04</internalNodes>
          <leafValues>
            -9.5285791158676147e-01 1.4687903225421906e-01</leafValues></_>
        <_>
          <internalNodes>
            0 -1 14 -5.3267376497387886e-03</internalNodes>
          <leafValues>
            1.4108660817146301e-01 -9.7824323177337646e-01</leafValues></_></weakClassifiers></_>
    <!-- stage 6 -->
    <_>
      <maxWeakCount>6</maxWeakCount>
      <stageThreshold>-1.5967172384262085e+00</stageThreshold>
      <weakClassifiers>
        <_>
          <internalNodes>
            0 -1 65 -6.2921755015850067e-03</internalNodes>
          <leafValues>
            4.7520659863948822e-02 -7.9307907819747925e-01</leafValues></_>
        <_>
          <internalNodes>
            0 -1 104 -5.7619740800873842e-06</internalNodes>
          <leafValues>
            1.3261991739273071e-01 -7.9827743768692017e-01</leafValues></_>
        <_>
          <internalNodes>
            0 -1 19 4.2402782128192484e-05</internalNodes>
          <leafValues>
            -6.3333606719970703e-01 2.7393478155136108e-01</leafValues></_>
        <_>
          <internalNodes>
            0 -1 106 1.2523023178800941e-04</internalNodes>
          <leafValues>
            2.4412015080451965e-01 -8.2016986608505249e-01</leafValues></_>
        <_>
          <internalNodes>
            0 -1 20 -1.4898605644702911e-02</internalNodes>
          <leafValues>
            6.3638502359390259e-01 -3.2078775763511658e-01</leafValues></_>
        <_>
          <internalNodes>
            0 -1 57 6.4754521008580923e-04</internalNodes>
          <leafValues>
            2.1930699050426483e-01 -9.3611043691635132e-01</leafValues></_></weakClassifiers></_>
    <!-- stage 7 -->
    <_>
      <maxWeakCount>7</maxWeakCount>
      <stageThreshold>-1.3233556747436523e+00</stageThreshold>
      <weakClassifiers>
        <_>
          <internalNodes>
            0 -1 21 3.0261989682912827e-02</internalNodes>
          <leafValues>
            -7.3346114158630371e-01 1.4157973229885101e-01</leafValues></_>
        <_>
          <internalNodes>
            0 -1 81 2.9759202152490616e-02</internalNodes>
          <leafValues>
            -6.8701350688934326e-01 1.5611757338047028e-01</leafValues></_>
        <_>
          <internalNodes>
            0 -1 75 -1.3349354267120361e-02</internalNodes>
          <leafValues>
            2.8632527589797974e-01 -6.1692094802856445e-01</leafValues></_>
        <_>
          <internalNodes>
            0 -1 43 1.3556569814682007e-02</internalNodes>
          <leafValues>
            2.0898148417472839e-01 -8.9154756069183350e-01</leafValues></_>
        <_>
          <internalNodes>
            0 -1 50 -6.7592579871416092e-03</internalNodes>
          <leafValues>
            -7.8045791387557983e-01 1.7462007701396942e-01</leafValues></_>
        <_>
          <internalNodes>
            0 -1 66 1.7575887031853199e-03</internalNodes>
          <leafValues>
            -4.9917826056480408e-01 3.2939693331718445e-01</leafValues></_>
        <_>
          <internalNodes>
            0 -1 98 6.4182456117123365e-04</internalNodes>
          <leafValues>
            1.8376834690570831e-01 -9.5263659954071045e-01</leafValues></_></weakClassifiers></_>
    <!-- stage 8 -->
    <_>
      <maxWeakCount>8</maxWeakCount>
      <stageThreshold>-1.5833363533020020e+00</stageThreshold>
      <weakClassifiers>
        <_>
          <internalNodes>
            0 -1 112 6.0956208035349846e-03</internalNodes>
          <leafValues>
            -7.1941775083541870e-01 2.1541155874729156e-01</leafValues></_>
        <_>
          <internalNodes>
            0 -1 42 -9.9281566217541695e-03</internalNodes>
          <leafValues>
            2.8617835044860840e-01 -5.4094582796096802e-01</leafValues></_>
        <_>
          <internalNodes>
            0 -1 109 -9.2316840891726315e-05</internalNodes>
          <leafValues>
            1.7866547405719757e-01 -8.2642072439193726e-01</leafValues></_>
        <_>
          <internalNodes>
            0 -1 113 1.9146848935633898e-03</internalNodes>
          <leafValues>
            1.8625462055206299e-01 -9.4272929430007935e-01</leafValues></_>
        <_>
          <internalNodes>
            0 -1 15 1.4739505946636200e-02</internalNodes>
          <leafValues>
            -3.2466688752174377e-01 5.4750949144363403e-01</leafValues></_>
        <_>
          <internalNodes>
            0 -1 6 4.1868751868605614e-03</internalNodes>
          <leafValues>
            -2.6054453849792480e-01 6.7165148258209229e-01</leafValues></_>
        <_>
          <internalNodes>
            0 -1 53 -9.4190882518887520e-03</internalNodes>
          <leafValues>
            7.1992731094360352e-01 -2.0868681371212006e-01</leafValues></_>
        <_>
          <internalNodes>
            0 -1 24 2.2242497652769089e-03</internalNodes>
          <leafValues>
            -6.8969887495040894e-01 2.6817741990089417e-01</leafValues></_></weakClassifiers></_>
    <!-- stage 9 -->
    <_>
      <maxWeakCount>9</maxWeakCount>
      <stageThreshold>-1.6495037078857422e+00</stageThreshold>
      <weakClassifiers>
        <_>
          <internalNodes>
            0 -1 41 -2.1737419068813324e-02</internalNodes>
          <leafValues>
            1.5826086699962616e-01 -7.1038758754730225e-01</leafValues></_>
        <_>
          <internalNodes>
            0 -1 74 3.1091563869267702e-04</internalNodes>
          <leafValues>
            -5.1461279392242432e-01 2.7412131428718567e-01</leafValues></_>
        <_>
          <internalNodes>
            0 -1 54 -5.3197047673165798e-03</internalNodes>
          <leafValues>
            2.1691939234733582e-01 -6.7374181747436523e-01</leafValues></_>
        <_>
          <internalNodes>
            0 -1 98 -4.4672749936580658e-04</internalNodes>
          <leafValues>
            -8.6707770824432373e-01 2.0136378705501556e-01</leafValues></_>
        <_>
          <internalNodes>
            0 -1 8 -2.8577689081430435e-02</internalNodes>
          <leafValues>
            -8.6770278215408325e-01 1.2218569964170456e-01</leafValues></_>
        <_>
          <internalNodes>
            0 -1 84 1.0165947023779154e-03</internalNodes>
          <leafValues>
            -2.6460182666778564e-01 5.9436845779418945e-01</leafValues></_>
        <_>
          <internalNodes>
            0 -1 114 -1.1400733455957379e-05</internalNodes>
          <leafValues>
            2.8898549079895020e-01 -5.2248674631118774e-01</leafValues></_>
        <_>
          <internalNodes>
            0 -1 10 4.3472854304127395e-04</internalNodes>
          <leafValues>
            -2.6813319325447083e-01 5.3167939186096191e-01</leafValues></_>
        <_>
          <internalNodes>
            0 -1 23 -4.8742599785327911e-02</internalNodes>
          <leafValues>
            -9.6021538972854614e-01 1.6943864524364471e-01</leafValues></_></weakClassifiers></_>
    <!-- stage 10 -->
    <_>
      <maxWeakCount>8</maxWeakCount>
      <stageThreshold>-1.5055615901947021e+00</stageThreshold>
      <weakClassifiers>
        <_>
          <internalNodes>
            0 -1 52 -8.7395310401916504e-04</internalNodes>
          <leafValues>
            -6.9075450301170349e-02 -7.4676460027694702e-01</leafValues></_>
        <_>
          <internalNodes>
            0 -1 78 8.1388535909354687e-04</internalNodes>
          <leafValues>
            -6.3729768991470337e-01 1.7807903885841370e-01</leafValues></_>
        <_>
          <internalNodes>
            0 -1 18 5.0523644313216209e-03</internalNodes>
          <leafValues>
            1.2517680227756500e-01 -8.9050590991973877e-01</leafValues></_>
        <_>
          <internalNodes>
            0 -1 37 -9.9380826577544212e-04</internalNodes>
          <leafValues>
            3.1594288349151611e-01 -4.6502467989921570e-01</leafValues></_>
        <_>
          <internalNodes>
            0 -1 95 -4.2411810718476772e-03</internalNodes>
          <leafValues>
            -9.3704640865325928e-01 1.3718767464160919e-01</leafValues></_>
        <_>
          <internalNodes>
            0 -1 61 1.5430727507919073e-03</internalNodes>
          <leafValues>
            -2.4109171330928802e-01 6.1774808168411255e-01</leafValues></_>
        <_>
          <internalNodes>
            0 -1 118 1.2608461547642946e-03</internalNodes>
          <leafValues>
            -2.1628694236278534e-01 6.1621958017349243e-01</leafValues></_>
        <_>
          <internalNodes>
            0 -1 16 -1.9507100805640221e-02</internalNodes>
          <leafValues>
            6.4903926849365234e-01 -2.4242804944515228e-01</leafValues></_></weakClassifiers></_>
    <!-- stage 11 -->
    <_>
      <maxWeakCount>9</maxWeakCount>
      <stageThreshold>-1.4725458621978760e+00</stageThreshold>
      <weakClassifiers>
        <_>
          <internalNodes>
            0 -1 62 2.3006431758403778e-02</internalNodes>
          <leafValues>
            -6.6628503799438477e-01 4.1830065846443176e-01</leafValues></_>
        <_>
          <internalNodes>
            0 -1 72 -1.5889787755440921e-04</internalNodes>
          <leafValues>
            1.2309674173593521e-01 -6.9258123636245728e-01</leafValues></_>
        <_>
          <internalNodes>
            0 -1 12 -2.5114584714174271e-03</internalNodes>
          <leafValues>
            1.3470515608787537e-01 -7.9870933294296265e-01</leafValues></_>
        <_>
          <internalNodes>
            0 -1 39 -3.1064241193234921e-04</internalNodes>
          <leafValues>
            2.7577987313270569e-01 -5.0131165981292725e-01</leafValues></_>
        <_>
          <internalNodes>
            0 -1 35 2.3596417158842087e-02</internalNodes>
          <leafValues>
            1.6405294835567474e-01 -9.6798306703567505e-01</leafValues></_>
        <_>
          <internalNodes>
            0 -1 51 -4.4849561527371407e-04</internalNodes>
          <leafValues>
            -9.1649216413497925e-01 8.8717274367809296e-02</leafValues></_>
        <_>
          <internalNodes>
            0 -1 49 4.9134390428662300e-04</internalNodes>
          <leafValues>
            1.6195501387119293e-01 -7.5884944200515747e-01</leafValues></_>
        <_>
          <internalNodes>
            0 -1 87 1.6762368613854051e-04</internalNodes>
          <leafValues>
            -5.0995397567749023e-01 2.4644002318382263e-01</leafValues></_>
        <_>
          <internalNodes>
            0 -1 22 -1.0568173602223396e-02</internalNodes>
          <leafValues>
            4.8311898112297058e-01 -3.0311182141304016e-01</leafValues></_></weakClassifiers></_>
    <!-- stage 12 -->
    <_>
      <maxWeakCount>9</maxWeakCount>
      <stageThreshold>-1.3798800706863403e+00</stageThreshold>
      <weakClassifiers>
        <_>
          <internalNodes>
            0 -1 58 5.6074135936796665e-03</internalNodes>
          <leafValues>
            -7.4238711595535278e-01 -8.3775185048580170e-02</leafValues></_>
        <_>
          <internalNodes>
            0 -1 46 -1.6921807546168566e-03</internalNodes>
          <leafValues>
            5.2056849002838135e-01 -3.8469514250755310e-01</leafValues></_>
        <_>
          <internalNodes>
            0 -1 103 -1.7050399037543684e-05</internalNodes>
          <leafValues>
            1.8755117058753967e-01 -7.3063313961029053e-01</leafValues></_>
        <_>
          <internalNodes>
            0 -1 92 2.6518322993069887e-03</internalNodes>
          <leafValues>
            2.0543363690376282e-01 -6.9594365358352661e-01</leafValues></_>
        <_>
          <internalNodes>
            0 -1 2 5.0279404968023300e-03</internalNodes>
          <leafValues>
            -2.6431727409362793e-01 5.8397346735000610e-01</leafValues></_>
        <_>
          <internalNodes>
            0 -1 7 -1.3855559518560767e-03</internalNodes>
          <leafValues>
            6.6649687290191650e-01 -2.2663046419620514e-01</leafValues></_>
        <_>
          <internalNodes>
            0 -1 97 -1.7138145631179214e-04</internalNodes>
          <leafValues>
            -9.5970904827117920e-01 1.5335716307163239e-01</leafValues></_>
        <_>
          <internalNodes>
            0 -1 11 -2.2717097308486700e-03</internalNodes>
          <leafValues>
            6.7958658933639526e-01 -2.2619099915027618e-01</leafValues></_>
        <_>
          <internalNodes>
            0 -1 48 6.1789085157215595e-04</internalNodes>
          <leafValues>
            1.7757140100002289e-01 -8.8515961170196533e-01</leafValues></_></weakClassifiers></_>
    <!-- stage 13 -->
    <_>
      <maxWeakCount>10</maxWeakCount>
      <stageThreshold>-1.7910081148147583e+00</stageThreshold>
      <weakClassifiers>
        <_>
          <internalNodes>
            0 -1 73 2.1930965594947338e-03</internalNodes>
          <leafValues>
            -7.8694969415664673e-01 -1.5764331817626953e-01</leafValues></_>
        <_>
          <internalNodes>
            0 -1 27 -8.3553150761872530e-04</internalNodes>
          <leafValues>
            3.0661034584045410e-01 -4.3767717480659485e-01</leafValues></_>
        <_>
          <internalNodes>
            0 -1 102 1.3675188529305160e-04</internalNodes>
          <leafValues>
            1.3639283180236816e-01 -9.2455035448074341e-01</leafValues></_>
        <_>
          <internalNodes>
            0 -1 119 -1.1481180990813300e-05</internalNodes>
          <leafValues>
            2.6439896225929260e-01 -4.5404830574989319e-01</leafValues></_>
        <_>
          <internalNodes>
            0 -1 108 -5.7619740800873842e-06</internalNodes>
          <leafValues>
            1.6605275869369507e-01 -6.4270603656768799e-01</leafValues></_>
        <_>
          <internalNodes>
            0 -1 91 1.3982027303427458e-03</internalNodes>
          <leafValues>
            -3.7044546008110046e-01 3.3035096526145935e-01</leafValues></_>
        <_>
          <internalNodes>
            0 -1 94 1.5403400175273418e-03</internalNodes>
          <leafValues>
            -2.1305854618549347e-01 5.8121019601821899e-01</leafValues></_>
        <_>
          <internalNodes>
            0 -1 64 -1.6497778706252575e-03</internalNodes>
          <leafValues>
            -6.4630818367004395e-01 2.1461294591426849e-01</leafValues></_>
        <_>
          <internalNodes>
            0 -1 68 -3.2019692007452250e-03</internalNodes>
          <leafValues>
            6.2419420480728149e-01 -2.0416329801082611e-01</leafValues></_>
        <_>
          <internalNodes>
            0 -1 107 1.8586381338536739e-04</internalNodes>
          <leafValues>
            1.5827575325965881e-01 -8.2894033193588257e-01</leafValues></_></weakClassifiers></_>
    <!-- stage 14 -->
    <_>
      <maxWeakCount>8</maxWeakCount>
      <stageThreshold>-1.3548550605773926e+00</stageThreshold>
      <weakClassifiers>
        <_>
          <internalNodes>
            0 -1 34 1.6785912215709686e-02</internalNodes>
          <leafValues>
            -7.3877269029617310e-01 -5.0962626934051514e-02</leafValues></_>
        <_>
          <internalNodes>
            0 -1 59 -2.9522477416321635e-04</internalNodes>
          <leafValues>
            1.7140382528305054e-01 -5.4976576566696167e-01</leafValues></_>
        <_>
          <internalNodes>
            0 -1 30 6.8296862991701346e-06</internalNodes>
          <leafValues>
            -5.0802546739578247e-01 2.5731760263442993e-01</leafValues></_>
        <_>
          <internalNodes>
            0 -1 93 1.3174023479223251e-04</internalNodes>
          <leafValues>
            -6.0118538141250610e-01 1.8893355131149292e-01</leafValues></_>
        <_>
          <internalNodes>
            0 -1 69 1.1875145137310028e-02</internalNodes>
          <leafValues>
            -2.0109869539737701e-01 6.1880546808242798e-01</leafValues></_>
        <_>
          <internalNodes>
            0 -1 117 -1.2371459743008018e-03</internalNodes>
          <leafValues>
            4.7620224952697754e-01 -2.8525304794311523e-01</leafValues></_>
        <_>
          <internalNodes>
            0 -1 9 -2.3190341889858246e-03</internalNodes>
          <leafValues>
            1.4501394331455231e-01 -8.6997222900390625e-01</leafValues></_>
        <_>
          <internalNodes>
            0 -1 29 8.7885651737451553e-04</internalNodes>
          <leafValues>
            1.2258667498826981e-01 -8.6663401126861572e-01</leafValues></_></weakClassifiers></_>
    <!-- stage 15 -->
    <_>
      <maxWeakCount>11</maxWeakCount>
      <stageThreshold>-1.4834271669387817e+00</stageThreshold>
      <weakClassifiers>
        <_>
          <internalNodes>
            0 -1 101 1.1139392852783203e-02</internalNodes>
          <leafValues>
            -7.0999681949615479e-01 3.4379672259092331e-02</leafValues></_>
        <_>
          <internalNodes>
            0 -1 45 7.2671298403292894e-04</internalNodes>
          <leafValues>
            -4.5378261804580688e-01 2.5976499915122986e-01</leafValues></_>
        <_>
          <internalNodes>
            0 -1 44 3.9586499333381653e-03</internalNodes>
          <leafValues>
            -2.2180721163749695e-01 6.1238938570022583e-01</leafValues></_>
        <_>
          <internalNodes>
            0 -1 116 -1.0744010978669394e-05</internalNodes>
          <leafValues>
            2.3300056159496307e-01 -5.2798795700073242e-01</leafValues></_>
        <_>
          <internalNodes>
            0 -1 5 3.4720236435532570e-03</internalNodes>
          <leafValues>
            -1.9937628507614136e-01 5.7139074802398682e-01</leafValues></_>
        <_>
          <internalNodes>
            0 -1 3 -2.2685027215629816e-03</internalNodes>
          <leafValues>
            5.2989876270294189e-01 -2.8043657541275024e-01</leafValues></_>
        <_>
          <internalNodes>
            0 -1 25 -3.0897473334334791e-04</internalNodes>
          <leafValues>
            -8.1935101747512817e-01 1.8104992806911469e-01</leafValues></_>
        <_>
          <internalNodes>
            0 -1 85 1.1240965686738491e-03</internalNodes>
          <leafValues>
            -2.2604104876518250e-01 5.6132632493972778e-01</leafValues></_>
        <_>
          <internalNodes>
            0 -1 115 -3.5088125150650740e-03</internalNodes>
          <leafValues>
            1.6175678372383118e-01 -7.8854739665985107e-01</leafValues></_>
        <_>
          <internalNodes>
            0 -1 90 -2.2617671638727188e-03</internalNodes>
          <leafValues>
            -6.8606936931610107e-01 1.6773262619972229e-01</leafValues></_>
        <_>
          <internalNodes>
            0 -1 83 -4.9190875142812729e-03</internalNodes>
          <leafValues>
            -7.4857169389724731e-01 1.5132683515548706e-01</leafValues></_></weakClassifiers></_>
    <!-- stage 16 -->
    <_>
      <maxWeakCount>11</maxWeakCount>
      <stageThreshold>-1.3798394203186035e+00</stageThreshold>
      <weakClassifiers>
        <_>
          <internalNodes>
            0 -1 82 -4.4553894549608231e-03</internalNodes>
          <leafValues>
            2.4444444477558136e-01 -6.6511625051498413e-01</leafValues></_>
        <_>
          <internalNodes>
            0 -1 31 -7.7287508174777031e-03</internalNodes>
          <leafValues>
            3.9811858534812927e-01 -3.4720844030380249e-01</leafValues></_>
        <_>
          <internalNodes>
            0 -1 36 5.8986279182136059e-03</internalNodes>
          <leafValues>
            1.1873953789472580e-01 -9.5802944898605347e-01</leafValues></_>
        <_>
          <internalNodes>
            0 -1 28 -3.7716509541496634e-04</internalNodes>
          <leafValues>
            -8.0053186416625977e-01 1.4816364645957947e-01</leafValues></_>
        <_>
          <internalNodes>
            0 -1 70 1.5096904244273901e-03</internalNodes>
          <leafValues>
            -4.8662596940994263e-01 2.2159793972969055e-01</leafValues></_>
        <_>
          <internalNodes>
            0 -1 105 1.2835845700465143e-04</internalNodes>
          <leafValues>
            1.3523954153060913e-01 -8.5535120964050293e-01</leafValues></_>
        <_>
          <internalNodes>
            0 -1 26 -2.4947887286543846e-03</internalNodes>
          <leafValues>
            3.8070669770240784e-01 -3.3492666482925415e-01</leafValues></_>
        <_>
          <internalNodes>
            0 -1 17 -6.3837380148470402e-03</internalNodes>
          <leafValues>
            -9.0476411581039429e-01 1.2082045525312424e-01</leafValues></_>
        <_>
          <internalNodes>
            0 -1 79 2.0810849964618683e-03</internalNodes>
          <leafValues>
            -2.1289935708045959e-01 5.6559228897094727e-01</leafValues></_>
        <_>
          <internalNodes>
            0 -1 1 -1.0340742766857147e-02</internalNodes>
          <leafValues>
            7.3145419359207153e-01 -1.2557941675186157e-01</leafValues></_>
        <_>
          <internalNodes>
            0 -1 4 2.2225459106266499e-03</internalNodes>
          <leafValues>
            -3.0511322617530823e-01 4.3850895762443542e-01</leafValues></_></weakClassifiers></_></stages>
  <features>
    <_>
      <rects>
        <_>
          0 0 24 6 -1.</_>
        <_>
          0 3 24 3 2.</_></rects>
      <tilted>0</tilted></_>
    <_>
      <rects>
        <_>
          0 7 2 37 -1.</_>
        <_>
          1 7 1 37 2.</_></rects>
      <tilted>0</tilted></_>
    <_>
      <rects>
        <_>
          0 11 2 28 -1.</_>
        <_>
          0 11 1 14 2.</_>
        <_>
          1 25 1 14 2.</_></rects>
      <tilted>0</tilted></_>
    <_>
      <rects>
        <_>
          0 12 3 28 -1.</_>
        <_>
          1 12 1 28 3.</_></rects>
      <tilted>0</tilted></_>
    <_>
      <rects>
        <_>
          0 17 2 15 -1.</_>
        <_>
          1 17 1 15 2.</_></rects>
      <tilted>0</tilted></_>
    <_>
      <rects>
        <_>
          0 17 3 15 -1.</_>
        <_>
          1 17 1 15 3.</_></rects>
      <tilted>0</tilted></_>
    <_>
      <rects>
        <_>
          0 17 2 19 -1.</_>
        <_>
          1 17 1 19 2.</_></rects>
      <tilted>0</tilted></_>
    <_>
      <rects>
        <_>
          0 19 2 8 -1.</_>
        <_>
          0 19 1 4 2.</_>
        <_>
          1 23 1 4 2.</_></rects>
      <tilted>0</tilted></_>
    <_>
      <rects>
        <_>
          0 19 24 5 -1.</_>
        <_>
          12 19 12 5 2.</_></rects>
      <tilted>0</tilted></_>
    <_>
      <rects>
        <_>
          0 30 20 2 -1.</_>
        <_>
          10 30 10 2 2.</_></rects>
      <tilted>0</tilted></_>
    <_>
      <rects>
        <_>
          0 31 3 1 -1.</_>
        <_>
          1 31 1 1 3.</_></rects>
      <tilted>0</tilted></_>
    <_>
      <rects>
        <_>
          0 33 2 5 -1.</_>
        <_>
          1 33 1 5 2.</_></rects>
      <tilted>0</tilted></_>
    <_>
      <rects>
        <_>
          0 33 22 3 -1.</_>
        <_>
          11 33 11 3 2.</_></rects>
      <tilted>0</tilted></_>
    <_>
      <rects>
        <_>
          1 21 20 14 -1.</_>
        <_>
          11 21 10 14 2.</_></rects>
      <tilted>0</tilted></_>
    <_>
      <rects>
        <_>
          2 19 18 19 -1.</_>
        <_>
          11 19 9 19 2.</_></rects>
      <tilted>0</tilted></_>
    <_>
      <rects>
        <_>
          2 44 20 4 -1.</_>
        <_>
          2 46 20 2 2.</_></rects>
      <tilted>0</tilted></_>
    <_>
      <rects>
        <_>
          3 0 16 4 -1.</_>
        <_>
          3 2 16 2 2.</_></rects>
      <tilted>0</tilted></_>
    <_>
      <rects>
        <_>
          3 8 11 6 -1.</_>
        <_>
          3 10 11 2 3.</_></rects>
      <tilted>0</tilted></_>
    <_>
      <rects>
        <_>
          3 23 5 14 -1.</_>
        <_>
          3 30 5 7 2.</_></rects>
      <tilted>0</tilted></_>
    <_>
      <rects>
        <_>
          3 27 4 5 -1.</_>
        <_>
          5 27 2 5 2.</_></rects>
      <tilted>0</tilted></_>
    <_>
      <rects>
        <_>
          4 0 15 4 -1.</_>
        <_>
          4 2 15 2 2.</_></rects>
      <tilted>0</tilted></_>
    <_>
      <rects>
        <_>
          4 14 8 12 -1.</_>
        <_>
          4 18 8 4 3.</_></rects>
      <tilted>0</tilted></_>
    <_>
      <rects>
        <_>
          4 16 7 12 -1.</_>
        <_>
          4 20 7 4 3.</_></rects>
      <tilted>0</tilted></_>
    <_>
      <rects>
        <_>
          4 22 14 18 -1.</_>
        <_>
          4 28 14 6 3.</_></rects>
      <tilted>0</tilted></_>
    <_>
      <rects>
        <_>
          4 26 12 8 -1.</_>
        <_>
          8 26 4 8 3.</_></rects>
      <tilted>0</tilted></_>
    <_>
      <rects>
        <_>
          4 28 2 4 -1.</_>
        <_>
          5 28 1 4 2.</_></rects>
      <tilted>0</tilted></_>
    <_>
      <rects>
        <_>
          4 36 6 8 -1.</_>
        <_>
          4 36 3 4 2.</_>
        <_>
          7 40 3 4 2.</_></rects>
      <tilted>0</tilted></_>
    <_>
      <rects>
        <_>
          4 38 8 2 -1.</_>
        <_>
          4 39 8 1 2.</_></rects>
      <tilted>0</tilted></_>
    <_>
      <rects>
        <_>
          5 28 3 5 -1.</_>
        <_>
          6 28 1 5 3.</_></rects>
      <tilted>0</tilted></_>
    <_>
      <rects>
        <_>
          5 29 3 5 -1.</_>
        <_>
          6 29 1 5 3.</_></rects>
      <tilted>0</tilted></_>
    <_>
      <rects>
        <_>
          5 30 2 4 -1.</_>
        <_>
          6 30 1 4 2.</_></rects>
      <tilted>0</tilted></_>
    <_>
      <rects>
        <_>
          6 0 9 6 -1.</_>
        <_>
          6 2 9 2 3.</_></rects>
      <tilted>0</tilted></_>
    <_>
      <rects>
        <_>
          6 12 18 33 -1.</_>
        <_>
          12 12 6 33 3.</_></rects>
      <tilted>0</tilted></_>
    <_>
      <rects>
        <_>
          6 14 17 28 -1.</_>
        <_>
          6 28 17 14 2.</_></rects>
      <tilted>0</tilted></_>
    <_>
      <rects>
        <_>
          6 16 8 9 -1.</_>
        <_>
          6 19 8 3 3.</_></rects>
      <tilted>0</tilted></_>
    <_>
      <rects>
        <_>
          6 18 17 18 -1.</_>
        <_>
          6 24 17 6 3.</_></rects>
      <tilted>0</tilted></_>
    <_>
      <rects>
        <_>
          6 20 1 18 -1.</_>
        <_>
          6 26 1 6 3.</_></rects>
      <tilted>0</tilted></_>
    <_>
      <rects>
        <_>
          6 21 4 4 -1.</_>
        <_>
          6 23 4 2 2.</_></rects>
      <tilted>0</tilted></_>
    <_>
      <rects>
        <_>
          6 25 18 7 -1.</_>
        <_>
          12 25 6 7 3.</_></rects>
      <tilted>0</tilted></_>
    <_>
      <rects>
        <_>
          6 28 8 2 -1.</_>
        <_>
          6 29 8 1 2.</_></rects>
      <tilted>0</tilted></_>
    <_>
      <rects>
        <_>
          7 0 8 4 -1.</_>
        <_>
          7 2 8 2 2.</_></rects>
      <tilted>0</tilted></_>
    <_>
      <rects>
        <_>
          7 13 12 8 -1.</_>
        <_>
          7 13 6 4 2.</_>
        <_>
          13 17 6 4 2.</_></rects>
      <tilted>0</tilted></_>
    <_>
      <rects>
        <_>
          7 20 7 9 -1.</_>
        <_>
          7 23 7 3 3.</_></rects>
      <tilted>0</tilted></_>
    <_>
      <rects>
        <_>
          7 21 12 22 -1.</_>
        <_>
          7 32 12 11 2.</_></rects>
      <tilted>0</tilted></_>
    <_>
      <rects>
        <_>
          7 23 7 6 -1.</_>
        <_>
          7 25 7 2 3.</_></rects>
      <tilted>0</tilted></_>
    <_>
      <rects>
        <_>
          7 23 16 2 -1.</_>
        <_>
          7 23 8 1 2.</_>
        <_>
          15 24 8 1 2.</_></rects>
      <tilted>0</tilted></_>
    <_>
      <rects>
        <_>
          7 24 7 2 -1.</_>
        <_>
          7 25 7 1 2.</_></rects>
      <tilted>0</tilted></_>
    <_>
      <rects>
        <_>
          7 25 15 6 -1.</_>
        <_>
          12 25 5 6 3.</_></rects>
      <tilted>0</tilted></_>
    <_>
      <rects>
        <_>
          7 28 2 6 -1.</_>
        <_>
          7 28 1 3 2.</_>
        <_>
          8 31 1 3 2.</_></rects>
      <tilted>0</tilted></_>
    <_>
      <rects>
        <_>
          7 28 3 4 -1.</_>
        <_>
          8 28 1 4 3.</_></rects>
      <tilted>0</tilted></_>
    <_>
      <rects>
        <_>
          7 29 9 10 -1.</_>
        <_>
          7 34 9 5 2.</_></rects>
      <tilted>0</tilted></_>
    <_>
      <rects>
        <_>
          7 31 3 4 -1.</_>
        <_>
          8 31 1 4 3.</_></rects>
      <tilted>0</tilted></_>
    <_>
      <rects>
        <_>
          7 39 5 2 -1.</_>
        <_>
          7 40 5 1 2.</_></rects>
      <tilted>0</tilted></_>
    <_>
      <rects>
        <_>
          8 17 8 4 -1.</_>
        <_>
          8 19 8 2 2.</_></rects>
      <tilted>0</tilted></_>
    <_>
      <rects>
        <_>
          8 18 8 21 -1.</_>
        <_>
          8 25 8 7 3.</_></rects>
      <tilted>0</tilted></_>
    <_>
      <rects>
        <_>
          8 20 4 21 -1.</_>
        <_>
          8 27 4 7 3.</_></rects>
      <tilted>0</tilted></_>
    <_>
      <rects>
        <_>
          8 22 4 10 -1.</_>
        <_>
          8 27 4 5 2.</_></rects>
      <tilted>0</tilted></_>
    <_>
      <rects>
        <_>
          8 23 14 10 -1.</_>
        <_>
          8 28 14 5 2.</_></rects>
      <tilted>0</tilted></_>
    <_>
      <rects>
        <_>
          8 24 6 6 -1.</_>
        <_>
          8 26 6 2 3.</_></rects>
      <tilted>0</tilted></_>
    <_>
      <rects>
        <_>
          8 27 2 4 -1.</_>
        <_>
          8 29 2 2 2.</_></rects>
      <tilted>0</tilted></_>
    <_>
      <rects>
        <_>
          8 28 7 2 -1.</_>
        <_>
          8 29 7 1 2.</_></rects>
      <tilted>0</tilted></_>
    <_>
      <rects>
        <_>
          9 1 4 3 -1.</_>
        <_>
          9 2 4 1 3.</_></rects>
      <tilted>0</tilted></_>
    <_>
      <rects>
        <_>
          9 12 15 2 -1.</_>
        <_>
          14 12 5 2 3.</_></rects>
      <tilted>0</tilted></_>
    <_>
      <rects>
        <_>
          9 18 8 10 -1.</_>
        <_>
          9 23 8 5 2.</_></rects>
      <tilted>0</tilted></_>
    <_>
      <rects>
        <_>
          9 20 1 14 -1.</_>
        <_>
          9 27 1 7 2.</_></rects>
      <tilted>0</tilted></_>
    <_>
      <rects>
        <_>
          9 22 5 6 -1.</_>
        <_>
          9 24 5 2 3.</_></rects>
      <tilted>0</tilted></_>
    <_>
      <rects>
        <_>
          9 25 4 6 -1.</_>
        <_>
          9 27 4 2 3.</_></rects>
      <tilted>0</tilted></_>
    <_>
      <rects>
        <_>
          9 27 12 4 -1.</_>
        <_>
          13 27 4 4 3.</_></rects>
      <tilted>0</tilted></_>
    <_>
      <rects>
        <_>
          10 0 11 3 -1.</_>
        <_>
          10 1 11 1 3.</_></rects>
      <tilted>0</tilted></_>
    <_>
      <rects>
        <_>
          10 16 12 6 -1.</_>
        <_>
          10 16 6 3 2.</_>
        <_>
          16 19 6 3 2.</_></rects>
      <tilted>0</tilted></_>
    <_>
      <rects>
        <_>
          10 25 3 6 -1.</_>
        <_>
          10 27 3 2 3.</_></rects>
      <tilted>0</tilted></_>
    <_>
      <rects>
        <_>
          10 27 9 3 -1.</_>
        <_>
          13 27 3 3 3.</_></rects>
      <tilted>0</tilted></_>
    <_>
      <rects>
        <_>
          11 21 2 7 -1.</_>
        <_>
          12 21 1 7 2.</_></rects>
      <tilted>0</tilted></_>
    <_>
      <rects>
        <_>
          11 25 2 6 -1.</_>
        <_>
          11 27 2 2 3.</_></rects>
      <tilted>0</tilted></_>
    <_>
      <rects>
        <_>
          11 26 3 3 -1.</_>
        <_>
          11 27 3 1 3.</_></rects>
      <tilted>0</tilted></_>
    <_>
      <rects>
        <_>
          12 15 3 24 -1.</_>
        <_>
          12 23 3 8 3.</_></rects>
      <tilted>0</tilted></_>
    <_>
      <rects>
        <_>
          12 18 12 12 -1.</_>
        <_>
          12 24 12 6 2.</_></rects>
      <tilted>0</tilted></_>
    <_>
      <rects>
        <_>
          12 25 12 1 -1.</_>
        <_>
          18 25 6 1 2.</_></rects>
      <tilted>0</tilted></_>
    <_>
      <rects>
        <_>
          12 34 12 6 -1.</_>
        <_>
          12 37 12 3 2.</_></rects>
      <tilted>0</tilted></_>
    <_>
      <rects>
        <_>
          13 1 4 3 -1.</_>
        <_>
          13 2 4 1 3.</_></rects>
      <tilted>0</tilted></_>
    <_>
      <rects>
        <_>
          13 10 10 10 -1.</_>
        <_>
          13 10 5 5 2.</_>
        <_>
          18 15 5 5 2.</_></rects>
      <tilted>0</tilted></_>
    <_>
      <rects>
        <_>
          13 11 10 32 -1.</_>
        <_>
          18 11 5 32 2.</_></rects>
      <tilted>0</tilted></_>
    <_>
      <rects>
        <_>
          13 12 1 9 -1.</_>
        <_>
          13 15 1 3 3.</_></rects>
      <tilted>0</tilted></_>
    <_>
      <rects>
        <_>
          13 23 4 22 -1.</_>
        <_>
          13 34 4 11 2.</_></rects>
      <tilted>0</tilted></_>
    <_>
      <rects>
        <_>
          13 46 3 2 -1.</_>
        <_>
          13 47 3 1 2.</_></rects>
      <tilted>0</tilted></_>
    <_>
      <rects>
        <_>
          14 2 4 3 -1.</_>
        <_>
          14 3 4 1 3.</_></rects>
      <tilted>0</tilted></_>
    <_>
      <rects>
        <_>
          14 12 9 26 -1.</_>
        <_>
          14 25 9 13 2.</_></rects>
      <tilted>0</tilted></_>
    <_>
      <rects>
        <_>
          14 24 2 2 -1.</_>
        <_>
          15 24 1 2 2.</_></rects>
      <tilted>0</tilted></_>
    <_>
      <rects>
        <_>
          14 26 4 3 -1.</_>
        <_>
          16 26 2 3 2.</_></rects>
      <tilted>0</tilted></_>
    <_>
      <rects>
        <_>
          14 30 4 12 -1.</_>
        <_>
          14 36 4 6 2.</_></rects>
      <tilted>0</tilted></_>
    <_>
      <rects>
        <_>
          14 32 8 13 -1.</_>
        <_>
          18 32 4 13 2.</_></rects>
      <tilted>0</tilted></_>
    <_>
      <rects>
        <_>
          15 23 2 9 -1.</_>
        <_>
          16 23 1 9 2.</_></rects>
      <tilted>0</tilted></_>
    <_>
      <rects>
        <_>
          15 23 8 9 -1.</_>
        <_>
          15 26 8 3 3.</_></rects>
      <tilted>0</tilted></_>
    <_>
      <rects>
        <_>
          15 32 6 1 -1.</_>
        <_>
          18 32 3 1 2.</_></rects>
      <tilted>0</tilted></_>
    <_>
      <rects>
        <_>
          15 45 4 2 -1.</_>
        <_>
          15 46 4 1 2.</_></rects>
      <tilted>0</tilted></_>
    <_>
      <rects>
        <_>
          16 22 7 9 -1.</_>
        <_>
          16 25 7 3 3.</_></rects>
      <tilted>0</tilted></_>
    <_>
      <rects>
        <_>
          16 25 4 2 -1.</_>
        <_>
          16 26 4 1 2.</_></rects>
      <tilted>0</tilted></_>
    <_>
      <rects>
        <_>
          17 24 3 1 -1.</_>
        <_>
          18 24 1 1 3.</_></rects>
      <tilted>0</tilted></_>
    <_>
      <rects>
        <_>
          17 24 6 3 -1.</_>
        <_>
          17 25 6 1 3.</_></rects>
      <tilted>0</tilted></_>
    <_>
      <rects>
        <_>
          17 27 6 2 -1.</_>
        <_>
          17 28 6 1 2.</_></rects>
      <tilted>0</tilted></_>
    <_>
      <rects>
        <_>
          17 28 4 2 -1.</_>
        <_>
          17 29 4 1 2.</_></rects>
      <tilted>0</tilted></_>
    <_>
      <rects>
        <_>
          18 13 6 10 -1.</_>
        <_>
          18 13 3 5 2.</_>
        <_>
          21 18 3 5 2.</_></rects>
      <tilted>0</tilted></_>
    <_>
      <rects>
        <_>
          18 23 1 3 -1.</_>
        <_>
          18 24 1 1 3.</_></rects>
      <tilted>0</tilted></_>
    <_>
      <rects>
        <_>
          18 29 3 2 -1.</_>
        <_>
          18 30 3 1 2.</_></rects>
      <tilted>0</tilted></_>
    <_>
      <rects>
        <_>
          18 30 1 2 -1.</_>
        <_>
          18 31 1 1 2.</_></rects>
      <tilted>0</tilted></_>
    <_>
      <rects>
        <_>
          19 22 1 3 -1.</_>
        <_>
          19 23 1 1 3.</_></rects>
      <tilted>0</tilted></_>
    <_>
      <rects>
        <_>
          19 25 1 3 -1.</_>
        <_>
          19 26 1 1 3.</_></rects>
      <tilted>0</tilted></_>
    <_>
      <rects>
        <_>
          19 26 2 3 -1.</_>
        <_>
          19 27 2 1 3.</_></rects>
      <tilted>0</tilted></_>
    <_>
      <rects>
        <_>
          19 27 1 2 -1.</_>
        <_>
          19 28 1 1 2.</_></rects>
      <tilted>0</tilted></_>
    <_>
      <rects>
        <_>
          19 27 3 4 -1.</_>
        <_>
          19 29 3 2 2.</_></rects>
      <tilted>0</tilted></_>
    <_>
      <rects>
        <_>
          19 30 3 2 -1.</_>
        <_>
          19 31 3 1 2.</_></rects>
      <tilted>0</tilted></_>
    <_>
      <rects>
        <_>
          19 30 3 3 -1.</_>
        <_>
          19 31 3 1 3.</_></rects>
      <tilted>0</tilted></_>
    <_>
      <rects>
        <_>
          20 14 4 10 -1.</_>
        <_>
          20 14 2 5 2.</_>
        <_>
          22 19 2 5 2.</_></rects>
      <tilted>0</tilted></_>
    <_>
      <rects>
        <_>
          20 23 2 9 -1.</_>
        <_>
          20 26 2 3 3.</_></rects>
      <tilted>0</tilted></_>
    <_>
      <rects>
        <_>
          20 32 1 2 -1.</_>
        <_>
          20 33 1 1 2.</_></rects>
      <tilted>0</tilted></_>
    <_>
      <rects>
        <_>
          21 12 1 30 -1.</_>
        <_>
          21 27 1 15 2.</_></rects>
      <tilted>0</tilted></_>
    <_>
      <rects>
        <_>
          21 29 1 2 -1.</_>
        <_>
          21 30 1 1 2.</_></rects>
      <tilted>0</tilted></_>
    <_>
      <rects>
        <_>
          22 7 2 12 -1.</_>
        <_>
          22 7 1 6 2.</_>
        <_>
          23 13 1 6 2.</_></rects>
      <tilted>0</tilted></_>
    <_>
      <rects>
        <_>
          22 15 2 6 -1.</_>
        <_>
          22 15 1 3 2.</_>
        <_>
          23 18 1 3 2.</_></rects>
      <tilted>0</tilted></_>
    <_>
      <rects>
        <_>
          23 23 1 2 -1.</_>
        <_>
          23 24 1 1 2.</_></rects>
      <tilted>0</tilted></_></features></cascade>
</opencv_storage>
